{"learner":{"attributes":{"best_iteration":"101","best_score":"0.9657564080779854"},"feature_names":[],"feature_types":[],"gradient_booster":{"model":{"cats":{"enc":[],"feature_segments":[],"sorted_idx":[]},"gbtree_model_param":{"num_parallel_tree":"1","num_trees":"152"},"iteration_indptr":[0,1,2,3,4,5,6,7,8,9,10,11,12,13,14,15,16,17,18,19,20,21,22,23,24,25,26,27,28,29,30,31,32,33,34,35,36,37,38,39,40,41,42,43,44,45,46,47,48,49,50,51,52,53,54,55,56,57,58,59,60,61,62,63,64,65,66,67,68,69,70,71,72,73,74,75,76,77,78,79,80,81,82,83,84,85,86,87,88,89,90,91,92,93,94,95,96,97,98,99,100,101,102,103,104,105,106,107,108,109,110,111,112,113,114,115,116,117,118,119,120,121,122,123,124,125,126,127,128,129,130,131,132,133,134,135,136,137,138,139,140,141,142,143,144,145,146,147,148,149,150,151,152],"tree_info":[0,0,0,0,0,0,0,0,0,0,0,0,0,0,0,0,0,0,0,0,0,0,0,0,0,0,0,0,0,0,0,0,0,0,0,0,0,0,0,0,0,0,0,0,0,0,0,0,0,0,0,0,0,0,0,0,0,0,0,0,0,0,0,0,0,0,0,0,0,0,0,0,0,0,0,0,0,0,0,0,0,0,0,0,0,0,0,0,0,0,0,0,0,0,0,0,0,0,0,0,0,0,0,0,0,0,0,0,0,0,0,0,0,0,0,0,0,0,0,0,0,0,0,0,0,0,0,0,0,0,0,0,0,0,0,0,0,0,0,0,0,0,0,0,0,0,0,0,0,0,0,0],"trees":[{"base_weights":[6.86831E-3,1.2628342E0,-1.3369768E0,1.9393829E0,-1.4977047E-1,-1.8649408E0,-4.449789E-1,-8.563551E-2,1.9795994E0,9.2724705E-1,-1.2000247E0,-1.2347734E0,-1.9213225E0,1.0073398E0,-1.668943E0,7.162175E-1,-9.5061734E-2,1.9907011E0,-8.9999996E-2,-1.186651E0,1.4003979E0,-1.8983512E0,-2.0755414E-2,-1.889609E0,-8.1448036E-1,-1.3660904E0,-1.9410623E0,1.5313333E0,-9.913979E-2,-1.3064682E0,-9.896936E-2,-8.571429E-2,1.124079E0,1.9931766E0,-6.666667E-2,-1.584399E0,1.1579959E0,1.6187035E0,-1.7562329E0,-1.9452682E0,-5.748879E-1,5.5874276E-1,-1.7552737E0,4.361744E-2,-9.88858E-2,-9.772728E-2,-3.2309043E-1,-9.855073E-2,3.1902373E-1,-1.9755933E0,-1.772546E0,1.6700453E0,-9.615385E-2,-1.5113761E0,7.694863E-2,7.358025E-2,-8.0000006E-2,9.975161E-2,1.2033705E-2,-9.088816E-2,-2.5060458E-2,8.367576E-2,-7.5E-2,9.3444854E-2,2.0031704E-2,-9.748428E-2,6.718295E-2,-9.809399E-2,1.8551541E-2,-9.0697676E-2,4.9390372E-2,-2.9808266E-2,6.947697E-2,5.4506805E-2,-9.300194E-2,1.0969999E-2,-8.304536E-2,6.871512E-2,-8.888889E-2,-5.3885203E-2,-9.897017E-2,-2.9930344E-2,-9.462511E-2,8.984072E-2,-9.550562E-2,-8.4943436E-2,-3.2315664E-2,6.0176592E-2,-9.518072E-2],"categories":[],"categories_nodes":[],"categories_segments":[],"categories_sizes":[],"default_left":[0,0,0,0,0,0,0,0,0,0,0,0,0,0,0,0,0,0,0,0,0,0,0,0,0,0,0,0,0,0,0,0,0,0,0,0,0,0,0,0,0,0,0,0,0,0,0,0,0,0,0,0,0,0,0,0,0,0,0,0,0,0,0,0,0,0,0,0,0,0,0,0,0,0,0,0,0,0,0,0,0,0,0,0,0,0,0,0,0],"id":0,"left_children":[1,3,5,7,9,11,13,15,17,19,21,23,25,27,29,31,-1,33,-1,35,37,39,41,43,45,47,49,51,-1,53,-1,-1,55,57,-1,59,61,63,65,67,69,71,73,-1,-1,-1,75,-1,77,79,81,83,-1,85,87,-1,-1,-1,-1,-1,-1,-1,-1,-1,-1,-1,-1,-1,-1,-1,-1,-1,-1,-1,-1,-1,-1,-1,-1,-1,-1,-1,-1,-1,-1,-1,-1,-1,-1],"loss_changes":[1.593291E4,4.663607E3,2.1468643E3,2.6887012E2,1.7895608E3,9.940234E1,3.0181506E3,9.6294266E1,1.3933203E2,7.8298016E2,6.595394E2,6.397455E1,2.6145508E1,1.2199801E3,1.0108008E2,4.7485497E1,0E0,2.9203125E1,0E0,1.355765E2,4.430166E2,3.0116455E1,3.014183E2,2.4185547E1,8.157531E1,9.6021484E1,1.1249023E1,3.2015747E2,0E0,1.21428345E2,0E0,0E0,4.018227E1,1.000293E1,0E0,3.0188934E1,3.1802835E1,1.8148145E2,2.7684738E1,1.9404419E1,3.7887207E1,2.1652615E2,2.4413284E1,0E0,0E0,0E0,7.565481E1,0E0,5.9045135E1,5.032715E0,6.0943237E1,2.9228723E2,0E0,5.93656E1,1.2760079E2,0E0,0E0,0E0,0E0,0E0,0E0,0E0,0E0,0E0,0E0,0E0,0E0,0E0,0E0,0E0,0E0,0E0,0E0,0E0,0E0,0E0,0E0,0E0,0E0,0E0,0E0,0E0,0E0,0E0,0E0,0E0,0E0,0E0,0E0],"parents":[2147483647,0,0,1,1,2,2,3,3,4,4,5,5,6,6,7,7,8,8,9,9,10,10,11,11,12,12,13,13,14,14,15,15,17,17,19,19,20,20,21,21,22,22,23,23,24,24,25,25,26,26,27,27,29,29,32,32,33,33,35,35,36,36,37,37,38,38,39,39,40,40,41,41,42,42,46,46,48,48,49,49,50,50,51,51,53,53,54,54],"right_children":[2,4,6,8,10,12,14,16,18,20,22,24,26,28,30,32,-1,34,-1,36,38,40,42,44,46,48,50,52,-1,54,-1,-1,56,58,-1,60,62,64,66,68,70,72,74,-1,-1,-1,76,-1,78,80,82,84,-1,86,88,-1,-1,-1,-1,-1,-1,-1,-1,-1,-1,-1,-1,-1,-1,-1,-1,-1,-1,-1,-1,-1,-1,-1,-1,-1,-1,-1,-1,-1,-1,-1,-1,-1,-1],"split_conditions":[-4.6033973E-1,-6.941726E-1,-1.07012466E-1,-2.6441646E-1,-1.4703926E0,-2.3580539E-1,-7.501726E-2,-1.4890717E-1,-2.913977E-2,-1.6946268E-1,9.23473E-1,-5.670668E-2,-1.3851469E0,-1.6557972E-1,1.8211908E0,-1.7377254E-1,-9.5061734E-2,-1.6906255E-1,-8.9999996E-2,-1.7632727E-2,3.943924E-1,-4.1174766E-1,-1.6735348E-1,-1.9952555E-1,-1.818202E-1,3.9565763E-1,1.0186019E0,1.0103104E0,-9.913979E-2,-3.126831E-2,-9.896936E-2,-8.571429E-2,4.2552036E-1,-1.2277127E-1,-6.666667E-2,1.0186019E0,2.5370386E-1,-1.4584E-1,1.1366817E0,2.146899E0,4.5281252E-1,1.0186019E0,-1.437307E0,4.361744E-2,-9.88858E-2,-9.772728E-2,-6.471906E-2,-9.855073E-2,-1.6643387E-1,-1.3994286E0,-1.5656126E0,-1.1001337E-1,-9.615385E-2,1.1370394E-2,-1.7286639E-1,7.358025E-2,-8.0000006E-2,9.975161E-2,1.2033705E-2,-9.088816E-2,-2.5060458E-2,8.367576E-2,-7.5E-2,9.3444854E-2,2.0031704E-2,-9.748428E-2,6.718295E-2,-9.809399E-2,1.8551541E-2,-9.0697676E-2,4.9390372E-2,-2.9808266E-2,6.947697E-2,5.4506805E-2,-9.300194E-2,1.0969999E-2,-8.304536E-2,6.871512E-2,-8.888889E-2,-5.3885203E-2,-9.897017E-2,-2.9930344E-2,-9.462511E-2,8.984072E-2,-9.550562E-2,-8.4943436E-2,-3.2315664E-2,6.0176592E-2,-9.518072E-2],"split_indices":[52,89,1,76,79,48,41,22,5,1,61,15,149,58,52,1,0,79,0,71,55,51,0,1,1,151,2,52,0,34,0,0,131,1,0,2,104,1,130,73,111,2,140,0,0,0,88,0,58,130,11,0,0,136,58,0,0,0,0,0,0,0,0,0,0,0,0,0,0,0,0,0,0,0,0,0,0,0,0,0,0,0,0,0,0,0,0,0,0],"split_type":[0,0,0,0,0,0,0,0,0,0,0,0,0,0,0,0,0,0,0,0,0,0,0,0,0,0,0,0,0,0,0,0,0,0,0,0,0,0,0,0,0,0,0,0,0,0,0,0,0,0,0,0,0,0,0,0,0,0,0,0,0,0,0,0,0,0,0,0,0,0,0,0,0,0,0,0,0,0,0,0,0,0,0,0,0,0,0,0,0],"sum_hessian":[9.437915E3,4.8784995E3,4.5594155E3,3.2984004E3,1.580099E3,2.8634683E3,1.6959471E3,6.420794E1,3.2341924E3,7.801677E2,7.999313E2,2.3703831E2,2.62643E3,7.757009E2,9.202463E2,4.4957943E1,1.925E1,3.2251924E3,9E0,1.4241075E2,6.3775696E2,5.0203317E2,2.9789813E2,9.1297195E1,1.4574112E2,9.2580376E1,2.5338496E3,6.604509E2,1.1525E2,4.2694907E2,4.932972E2,6E0,3.8957943E1,3.2231924E3,2E0,1.2203318E2,2.037757E1,5.969598E2,4.0797195E1,4.843916E2,1.7641588E1,2.2380373E2,7.409439E1,2.5471961E0,8.875E1,4.3E1,1.0274112E2,6.8E1,2.4580374E1,2.0940332E3,4.3981635E2,6.354509E2,2.5E1,3.7178833E2,5.5160748E1,3.4957943E1,4E0,3.2196453E3,3.5471961E0,9.984439E1,2.2188786E1,1.737757E1,3E0,4.9479388E2,1.02165886E2,3.875E1,2.0471961E0,4.810944E2,3.2971961E0,9.75E0,7.891588E0,9.375514E1,1.300486E2,2.2971961E0,7.1797195E1,7.3693924E1,2.9047195E1,1.6580374E1,8E0,1.0047196E1,2.083986E3,4.133037E1,3.98486E2,6.142009E2,2.125E1,3.0476917E2,6.701916E1,3.5410748E1,1.975E1],"tree_param":{"num_deleted":"0","num_feature":"157","num_nodes":"89","size_leaf_vector":"1"}},{"base_weights":[1.2117946E-3,1.2088422E0,-1.2905229E0,1.8725382E0,-1.0000432E-1,-1.7617309E0,-4.88448E-1,-4.2543647E-1,1.891664E0,8.9515567E-1,-1.1281885E0,-1.0313845E0,-1.815788E0,-1.3065597E0,1.3577377E0,7.5006855E-1,-8.962952E-2,1.895822E0,-7.429246E-2,-1.5163276E0,1.2409987E0,-1.7608747E0,-7.696928E-2,-1.7714472E0,-6.052175E-1,-1.6857233E0,-9.5273994E-2,7.7844983E-1,-1.6426134E0,9.548747E-2,-9.402712E-2,1.3928735E0,-7.2156206E-2,1.8996987E0,9.1166854E-1,-1.732178E0,8.404748E-2,1.425693E0,-1.7010608E0,-1.319545E0,-9.509134E-2,5.4635304E-1,-1.4760491E0,5.355325E-2,-9.39919E-2,2.5674888E-1,-1.2505002E0,-1.71998E0,1.1941937E0,-1.1379435E0,1.6064807E0,-1.3091526E0,-1.8813187E0,8.692039E-2,1.6477074E-2,2.4617337E-2,9.504457E-2,8.6756386E-2,-7.3889926E-2,-9.064287E-2,5.775375E-2,8.332275E-2,9.308681E-3,6.651455E-2,-9.4150834E-2,7.982299E-3,-7.969315E-2,-2.7522761E-2,6.606378E-2,-8.942091E-2,-1.5065558E-2,-5.8235694E-2,6.124509E-2,-7.694241E-2,5.0878264E-2,-9.405864E-2,-7.288509E-2,8.668147E-2,-6.3524745E-2,7.036324E-3,-8.520943E-2,9.364489E-2,-1.2976402E-2,-7.81857E-2,1.2881842E-2,-5.283348E-2,-9.5458984E-2],"categories":[],"categories_nodes":[],"categories_segments":[],"categories_sizes":[],"default_left":[0,0,0,0,0,0,0,0,0,0,0,0,0,0,0,0,0,0,0,0,0,0,0,0,0,0,0,0,0,0,0,0,0,0,0,0,0,0,0,0,0,0,0,0,0,0,0,0,0,0,0,0,0,0,0,0,0,0,0,0,0,0,0,0,0,0,0,0,0,0,0,0,0,0,0,0,0,0,0,0,0,0,0,0,0,0,0],"id":1,"left_children":[1,3,5,7,9,11,13,15,17,19,21,23,25,27,29,31,-1,33,-1,35,37,39,41,43,45,47,-1,49,51,-1,-1,53,-1,55,57,59,-1,61,63,65,-1,67,69,-1,-1,71,73,75,77,79,81,83,85,-1,-1,-1,-1,-1,-1,-1,-1,-1,-1,-1,-1,-1,-1,-1,-1,-1,-1,-1,-1,-1,-1,-1,-1,-1,-1,-1,-1,-1,-1,-1,-1,-1,-1],"loss_changes":[1.4665842E4,4.221049E3,1.7159854E3,1.4250684E2,1.6748041E3,1.1108594E2,2.542963E3,4.5425564E1,4.7725586E1,6.956172E2,5.352689E2,6.1844635E1,2.7850586E1,8.1851624E2,9.2797797E2,2.3795933E1,0E0,1.0455078E1,0E0,7.522595E1,3.9802844E2,2.8749146E1,2.6548874E2,2.4313461E1,7.157729E1,1.10122314E2,0E0,2.5980542E2,7.7516846E1,0E0,0E0,4.0049458E0,0E0,4.401367E0,3.1007187E1,2.5073425E1,0E0,2.0428638E2,2.6476593E1,5.0937256E1,0E0,1.7980461E2,3.3886337E1,0E0,0E0,7.8047585E1,4.959105E1,4.3041504E1,2.0107368E1,3.6178383E1,5.712863E1,1.6890637E2,1.13845215E1,0E0,0E0,0E0,0E0,0E0,0E0,0E0,0E0,0E0,0E0,0E0,0E0,0E0,0E0,0E0,0E0,0E0,0E0,0E0,0E0,0E0,0E0,0E0,0E0,0E0,0E0,0E0,0E0,0E0,0E0,0E0,0E0,0E0,0E0],"parents":[2147483647,0,0,1,1,2,2,3,3,4,4,5,5,6,6,7,7,8,8,9,9,10,10,11,11,12,12,13,13,14,14,15,15,17,17,19,19,20,20,21,21,22,22,23,23,24,24,25,25,27,27,28,28,31,31,33,33,34,34,35,35,37,37,38,38,39,39,41,41,42,42,45,45,46,46,47,47,48,48,49,49,50,50,51,51,52,52],"right_children":[2,4,6,8,10,12,14,16,18,20,22,24,26,28,30,32,-1,34,-1,36,38,40,42,44,46,48,-1,50,52,-1,-1,54,-1,56,58,60,-1,62,64,66,-1,68,70,-1,-1,72,74,76,78,80,82,84,86,-1,-1,-1,-1,-1,-1,-1,-1,-1,-1,-1,-1,-1,-1,-1,-1,-1,-1,-1,-1,-1,-1,-1,-1,-1,-1,-1,-1,-1,-1,-1,-1,-1,-1],"split_conditions":[-4.6033973E-1,-6.942102E-1,-1.07012466E-1,-1.6946268E-1,-1.4700272E0,-2.3487744E-1,9.268908E-1,-2.0178914E-1,-8.0147095E-2,-1.7964585E-1,9.23473E-1,-5.670668E-2,-1.6643387E-1,-2.391902E-1,-1.2693918E-1,-1.7289433E-1,-8.962952E-2,-1.24811076E-1,-7.429246E-2,6.3827515E-1,-2.3206946E-1,-1.316296E0,-1.6399778E-1,-5.514259E-1,-3.91463E-2,-3.5168536E-2,-9.5273994E-2,4.82977E-2,-1.7283282E-1,9.548747E-2,-9.402712E-2,2.2805154E-2,-7.2156206E-2,-1.1098089E0,-1.5625614E-1,1.1188549E0,8.404748E-2,-1.4940697E-1,-1.2542704E0,-4.5891306E-1,-9.509134E-2,1.0186019E0,1.6740136E-1,5.355325E-2,-9.39919E-2,-4.138299E-1,3.540971E-1,-5.6489155E-2,4.955949E-1,-1.7966452E-1,4.997505E-2,-4.000086E-2,-1.5612522E0,8.692039E-2,1.6477074E-2,2.4617337E-2,9.504457E-2,8.6756386E-2,-7.3889926E-2,-9.064287E-2,5.775375E-2,8.332275E-2,9.308681E-3,6.651455E-2,-9.4150834E-2,7.982299E-3,-7.969315E-2,-2.7522761E-2,6.606378E-2,-8.942091E-2,-1.5065558E-2,-5.8235694E-2,6.124509E-2,-7.694241E-2,5.0878264E-2,-9.405864E-2,-7.288509E-2,8.668147E-2,-6.3524745E-2,7.036324E-3,-8.520943E-2,9.364489E-2,-1.2976402E-2,-7.81857E-2,1.2881842E-2,-5.283348E-2,-9.5458984E-2],"split_indices":[52,89,1,1,80,42,45,98,23,1,61,15,58,40,21,58,0,17,0,156,53,67,10,106,63,57,0,1,58,0,0,114,0,11,1,93,0,1,109,155,0,2,93,0,0,51,125,15,107,131,1,47,93,0,0,0,0,0,0,0,0,0,0,0,0,0,0,0,0,0,0,0,0,0,0,0,0,0,0,0,0,0,0,0,0,0,0],"split_type":[0,0,0,0,0,0,0,0,0,0,0,0,0,0,0,0,0,0,0,0,0,0,0,0,0,0,0,0,0,0,0,0,0,0,0,0,0,0,0,0,0,0,0,0,0,0,0,0,0,0,0,0,0,0,0,0,0,0,0,0,0,0,0,0,0,0,0,0,0,0,0,0,0,0,0,0,0,0,0,0,0,0,0,0,0,0,0],"sum_hessian":[9.399554E3,4.857959E3,4.5415947E3,3.223129E3,1.6348302E3,2.8601184E3,1.6814766E3,2.6428968E1,3.1966997E3,8.308223E2,8.040078E2,1.9848862E2,2.6616296E3,1.165357E3,5.1611957E2,1.4453198E1,1.1975769E1,3.1932073E3,3.492455E0,1.0378301E2,7.270393E2,5.0150012E2,3.025077E2,7.137875E1,1.2710986E2,1.0944021E3,1.5672277E3,1.6157375E2,1.00378326E3,4.4130328E2,7.481627E1,1.1459448E1,2.9937506E0,3.179752E3,1.3455483E1,9.76489E1,6.1341085E0,6.845788E2,4.246054E1,1.23905655E2,3.7759448E2,2.0969379E2,9.281392E1,2.2956126E0,6.9083145E1,5.4675983E1,7.2433876E1,1.0819352E3,1.2466903E1,4.8636112E1,1.1293762E2,4.2147934E2,5.8230396E2,8.169776E0,3.2896717E0,3.0426788E0,3.1767092E3,1.021056E1,3.244924E0,9.5356445E1,2.2924585E0,5.729463E2,1.11632454E2,2.0469909E0,4.041355E1,1.944913E1,1.0445653E2,8.693606E1,1.2275773E2,7.290555E1,1.9908373E1,2.2069723E1,3.2606262E1,6.454903E1,7.884853E0,6.662774E2,4.1565775E2,1.0471635E1,1.9952676E0,1.5158138E1,3.3477974E1,9.88244E1,1.411322E1,3.6257288E2,5.8906452E1,2.0302528E1,5.620014E2],"tree_param":{"num_deleted":"0","num_feature":"157","num_nodes":"87","size_leaf_vector":"1"}},{"base_weights":[-4.8004175E-3,1.147163E0,-1.2424227E0,1.771273E0,-1.9049841E-1,-7.4627125E-1,-1.820817E0,4.650769E-2,1.8052127E0,7.788533E-1,-1.1149386E0,-1.3244911E0,1.8031136E0,-9.123271E-2,-1.1341695E0,7.4998045E-1,-8.8243335E-2,1.8147993E0,-8.3017394E-2,-1.6593599E0,1.0735831E0,-1.728357E0,-9.412098E-2,-2.5646424E-1,-1.5469117E0,-6.969026E-2,9.1467574E-2,7.012681E-2,-8.381737E-2,-5.9849495E-1,1.253686E0,1.8167955E0,-5.9772678E-2,3.82082E-1,-9.213092E-2,1.2485656E0,-1.7881739E-1,-1.7744559E0,-3.9977038E-1,-1.0996625E0,8.5502166E-1,-1.752418E0,4.22093E-1,-1.6224755E0,-7.76907E-1,-8.2792394E-2,3.874687E-2,7.366194E-2,-6.6845894E-2,2.7791435E-2,9.088542E-2,7.374617E-2,-6.587405E-2,6.573127E-2,-8.694287E-2,-4.150477E-2,8.758684E-2,-8.95106E-2,1.8559335E-2,-8.335807E-2,4.9599838E-2,-6.6177905E-2,4.644946E-2,6.527727E-2,-7.339113E-2,1.9108195E-2,-9.1184005E-2,6.2312137E-2,-1.3195689E-2,-8.233189E-2,2.7229523E-2,1.5586505E-2,-9.1450974E-2],"categories":[],"categories_nodes":[],"categories_segments":[],"categories_sizes":[],"default_left":[0,0,0,0,0,0,0,0,0,0,0,0,0,0,0,0,0,0,0,0,0,0,0,0,0,0,0,0,0,0,0,0,0,0,0,0,0,0,0,0,0,0,0,0,0,0,0,0,0,0,0,0,0,0,0,0,0,0,0,0,0,0,0,0,0,0,0,0,0,0,0,0,0],"id":2,"left_children":[1,3,5,7,9,11,13,15,17,19,21,23,25,-1,27,29,-1,31,-1,33,35,37,39,41,43,-1,-1,-1,-1,45,47,49,-1,51,-1,53,55,57,59,61,63,65,67,69,71,-1,-1,-1,-1,-1,-1,-1,-1,-1,-1,-1,-1,-1,-1,-1,-1,-1,-1,-1,-1,-1,-1,-1,-1,-1,-1,-1,-1],"loss_changes":[1.3314724E4,4.0384492E3,1.2906318E3,1.9298926E2,1.3806128E3,3.5771929E3,3.40625E0,8.373759E1,1.1047363E2,5.4231274E2,4.9360095E2,4.6931494E2,4.019214E1,0E0,2.1869064E1,3.2868828E1,0E0,2.1557617E1,0E0,3.1198288E1,1.474195E2,2.945398E1,2.8442957E2,3.4790662E2,9.394653E1,0E0,0E0,0E0,0E0,2.094094E1,2.173441E1,2.7021484E0,0E0,1.5952612E1,0E0,1.1861493E2,1.0608273E2,1.6745728E1,3.3062134E1,6.693906E1,1.6241162E2,1.6960632E1,1.3380692E2,7.887012E1,1.702518E2,0E0,0E0,0E0,0E0,0E0,0E0,0E0,0E0,0E0,0E0,0E0,0E0,0E0,0E0,0E0,0E0,0E0,0E0,0E0,0E0,0E0,0E0,0E0,0E0,0E0,0E0,0E0,0E0],"parents":[2147483647,0,0,1,1,2,2,3,3,4,4,5,5,6,6,7,7,8,8,9,9,10,10,11,11,12,12,14,14,15,15,17,17,19,19,20,20,21,21,22,22,23,23,24,24,29,29,30,30,31,31,33,33,35,35,36,36,37,37,38,38,39,39,40,40,41,41,42,42,43,43,44,44],"right_children":[2,4,6,8,10,12,14,16,18,20,22,24,26,-1,28,30,-1,32,-1,34,36,38,40,42,44,-1,-1,-1,-1,46,48,50,-1,52,-1,54,56,58,60,62,64,66,68,70,72,-1,-1,-1,-1,-1,-1,-1,-1,-1,-1,-1,-1,-1,-1,-1,-1,-1,-1,-1,-1,-1,-1,-1,-1,-1,-1,-1,-1],"split_conditions":[-4.6033973E-1,-6.941726E-1,-1.6557972E-1,-2.6441646E-1,-1.4700272E0,-1.538106E-1,7.3067436E0,-1.656104E-1,-4.693209E-2,-4.1402432E-1,9.23473E-1,-2.4309163E-1,-2.822272E-2,-9.123271E-2,-1.6100027E-1,2.5909606E-1,-8.8243335E-2,-1.6412506E-1,-8.3017394E-2,-2.6241454E-1,-1.5063013E-1,-4.1174766E-1,1.0186019E0,-5.670668E-2,-4.000086E-2,-6.969026E-2,9.1467574E-2,7.012681E-2,-8.381737E-2,-8.8770546E-2,9.12283E-1,-1.6594096E-1,-5.9772678E-2,-4.8835927E-1,-9.213092E-2,-2.3188606E-1,-9.761919E-3,2.146899E0,5.2633405E-1,-1.7402353E-2,-1.4891085E-1,-1.0686226E0,-5.6484036E-2,-2.5598835E-2,-1.5462694E-1,-8.2792394E-2,3.874687E-2,7.366194E-2,-6.6845894E-2,2.7791435E-2,9.088542E-2,7.374617E-2,-6.587405E-2,6.573127E-2,-8.694287E-2,-4.150477E-2,8.758684E-2,-8.95106E-2,1.8559335E-2,-8.335807E-2,4.9599838E-2,-6.6177905E-2,4.644946E-2,6.527727E-2,-7.339113E-2,1.9108195E-2,-9.1184005E-2,6.2312137E-2,-1.3195689E-2,-8.233189E-2,2.7229523E-2,1.5586505E-2,-9.1450974E-2],"split_indices":[52,89,58,76,80,60,3,17,3,51,61,46,76,0,58,118,0,80,0,82,17,51,2,15,47,0,0,0,0,136,106,10,0,52,0,53,91,73,113,71,22,143,15,36,46,0,0,0,0,0,0,0,0,0,0,0,0,0,0,0,0,0,0,0,0,0,0,0,0,0,0,0,0],"split_type":[0,0,0,0,0,0,0,0,0,0,0,0,0,0,0,0,0,0,0,0,0,0,0,0,0,0,0,0,0,0,0,0,0,0,0,0,0,0,0,0,0,0,0,0,0,0,0,0,0,0,0,0,0,0,0,0,0,0,0,0,0,0,0,0,0,0,0,0,0,0,0,0,0],"sum_hessian":[9.337106E3,4.8359434E3,4.5011636E3,3.297235E3,1.5387083E3,2.4240679E3,2.0770955E3,6.367632E1,3.2335588E3,7.5118567E2,7.875226E2,1.976307E3,4.4776102E2,2.063904E3,1.3191289E1,4.628633E1,1.7389988E1,3.2251138E3,8.445035E0,8.051108E1,6.7067456E2,4.9148923E2,2.9603336E2,3.4100595E2,1.635301E3,3.2206712E0,4.4454034E2,2.0434897E0,1.11477995E1,1.2536513E1,3.374982E1,3.2233728E3,1.7410913E0,6.5426874E0,7.396839E1,5.884595E2,8.221509E1,4.7468317E2,1.6806046E1,1.4366891E2,1.5236443E2,1.0591724E2,2.3508873E2,1.4881552E3,1.4714586E2,6.9671464E0,5.5693665E0,3.151062E1,2.2391992E0,2.773178E0,3.2205996E3,4.062574E0,2.4801135E0,5.762764E2,1.21830635E1,6.190222E1,2.031287E1,4.7138733E2,3.295858E0,8.692492E0,8.113555E0,1.2970174E2,1.396718E1,1.2798019E2,2.4384249E1,3.2808175E0,1.0263641E2,1.06420906E2,1.2866782E2,1.4719832E3,1.6172047E1,7.2663506E1,7.448235E1],"tree_param":{"num_deleted":"0","num_feature":"157","num_nodes":"73","size_leaf_vector":"1"}},{"base_weights":[1.1274078E-2,1.1457778E0,-1.1431788E0,1.3979648E0,-8.766297E-2,-1.5871192E0,-4.4127053E-1,-8.188487E-1,1.5594773E0,-7.882623E-1,-1.6678915E0,6.8644387E-1,-1.483644E0,-1.3066479E0,1.3933845E0,1.6282724E0,-1.1765275E0,2.408231E-1,-1.2007426E0,-5.790048E-1,-1.6802789E0,1.1398457E0,-1.6908844E0,-1.1792964E0,-1.7451285E0,1.3033913E0,-1.4139255E0,1.6037534E0,-7.220652E-2,1.67525E0,-6.4108706E-1,6.2063575E-1,-8.7733015E-2,1.049271E0,-1.416417E0,-1.0894284E-3,-1.4219694E0,-8.8485025E-2,7.519081E-2,-1.5732905E0,-8.756261E-2,1.3448453E0,-8.714388E-2,-8.748268E-2,7.6150134E-2,-1.3727415E0,1.1613483E-1,-1.4260422E0,-8.80557E-2,2.145465E-2,8.07069E-2,-8.433807E-2,-2.4900792E-2,-6.579053E-2,8.757074E-2,8.517899E-2,2.6893413E-2,7.014468E-2,-9.086081E-2,5.695622E-2,-7.76887E-2,-7.975585E-2,7.561893E-2,-8.619673E-2,6.953853E-2,3.556275E-2,-8.2462914E-2,-9.359289E-3,-7.9485066E-2,-8.002683E-2,4.6730354E-2,7.946079E-2,-5.8198404E-3,-7.237699E-2,4.1150704E-2,7.502713E-2,-8.557202E-2,-8.444022E-2,3.130831E-2],"categories":[],"categories_nodes":[],"categories_segments":[],"categories_sizes":[],"default_left":[0,0,0,0,0,0,0,0,0,0,0,0,0,0,0,0,0,0,0,0,0,0,0,0,0,0,0,0,0,0,0,0,0,0,0,0,0,0,0,0,0,0,0,0,0,0,0,0,0,0,0,0,0,0,0,0,0,0,0,0,0,0,0,0,0,0,0,0,0,0,0,0,0,0,0,0,0,0,0],"id":3,"left_children":[1,3,5,7,-1,9,11,13,15,17,19,21,23,25,27,29,31,33,35,37,39,41,43,45,47,49,51,53,-1,55,57,59,-1,61,63,65,67,-1,-1,69,-1,71,-1,-1,-1,73,75,77,-1,-1,-1,-1,-1,-1,-1,-1,-1,-1,-1,-1,-1,-1,-1,-1,-1,-1,-1,-1,-1,-1,-1,-1,-1,-1,-1,-1,-1,-1,-1],"loss_changes":[1.219817E4,3.4366636E3,1.4377217E3,1.5487256E3,0E0,1.8111963E2,2.1049783E3,3.192572E2,7.602324E2,1.11296906E2,3.3649414E1,9.2935205E2,7.198779E1,6.947171E1,3.4328102E1,4.200918E2,1.043629E2,1.0285689E2,4.9588806E1,7.8048E1,1.6512207E1,4.297213E2,2.877069E1,1.086817E2,3.0517578E-2,2.0394115E0,5.7254272E1,2.4032547E1,0E0,1.23168945E2,1.9591582E2,2.987784E1,0E0,6.539314E1,2.4180542E1,3.6504726E1,3.237677E1,0E0,0E0,7.131543E1,0E0,2.4148328E2,0E0,0E0,0E0,6.3088013E1,1.4725987E2,1.6712883E1,0E0,0E0,0E0,0E0,0E0,0E0,0E0,0E0,0E0,0E0,0E0,0E0,0E0,0E0,0E0,0E0,0E0,0E0,0E0,0E0,0E0,0E0,0E0,0E0,0E0,0E0,0E0,0E0,0E0,0E0,0E0],"parents":[2147483647,0,0,1,1,2,2,3,3,5,5,6,6,7,7,8,8,9,9,10,10,11,11,12,12,13,13,14,14,15,15,16,16,17,17,18,18,19,19,20,20,21,21,22,22,23,23,24,24,25,25,26,26,27,27,29,29,30,30,31,31,33,33,34,34,35,35,36,36,39,39,41,41,45,45,46,46,47,47],"right_children":[2,4,6,8,-1,10,12,14,16,18,20,22,24,26,28,30,32,34,36,38,40,42,44,46,48,50,52,54,-1,56,58,60,-1,62,64,66,68,-1,-1,70,-1,72,-1,-1,-1,74,76,78,-1,-1,-1,-1,-1,-1,-1,-1,-1,-1,-1,-1,-1,-1,-1,-1,-1,-1,-1,-1,-1,-1,-1,-1,-1,-1,-1,-1,-1,-1,-1],"split_conditions":[-4.8050573E-1,-2.4024522E-2,-1.328949E-1,-1.6946268E-1,-8.766297E-2,-2.3487744E-1,-9.711187E-2,-3.0010635E-2,3.943924E-1,-6.941726E-1,-4.6033973E-1,1.0103104E0,1.8211908E0,-4.9397978E-1,2.7088225E-1,-1.2163102E-1,-4.881558E-1,-4.132457E-1,-6.774367E-2,-1.5069604E-1,-1.6643387E-1,-1.1001337E-1,1.9478443E0,5.578254E-3,-1.3184611E0,9.6086293E-1,1.0186019E0,-9.138345E-2,-7.220652E-2,-1.6906255E-1,-1.5253906E-1,4.0014777E-1,-8.7733015E-2,-1.6946268E-1,8.902074E-1,1.7365454E-1,-5.5125E-1,-8.8485025E-2,7.519081E-2,-3.5168536E-2,-8.756261E-2,-6.4637613E-1,-8.714388E-2,-8.748268E-2,7.6150134E-2,7.602324E0,-1.5462694E-1,-4.7406785E-2,-8.80557E-2,2.145465E-2,8.07069E-2,-8.433807E-2,-2.4900792E-2,-6.579053E-2,8.757074E-2,8.517899E-2,2.6893413E-2,7.014468E-2,-9.086081E-2,5.695622E-2,-7.76887E-2,-7.975585E-2,7.561893E-2,-8.619673E-2,6.953853E-2,3.556275E-2,-8.2462914E-2,-9.359289E-3,-7.9485066E-2,-8.002683E-2,4.6730354E-2,7.946079E-2,-5.8198404E-3,-7.237699E-2,4.1150704E-2,7.502713E-2,-8.557202E-2,-8.444022E-2,3.130831E-2],"split_indices":[52,4,1,1,0,42,47,70,55,89,52,52,52,112,104,17,52,52,123,1,58,0,105,47,110,148,2,2,0,79,1,106,0,1,103,139,104,0,0,57,0,2,0,0,0,5,46,17,0,0,0,0,0,0,0,0,0,0,0,0,0,0,0,0,0,0,0,0,0,0,0,0,0,0,0,0,0,0,0],"split_type":[0,0,0,0,0,0,0,0,0,0,0,0,0,0,0,0,0,0,0,0,0,0,0,0,0,0,0,0,0,0,0,0,0,0,0,0,0,0,0,0,0,0,0,0,0,0,0,0,0,0,0,0,0,0,0,0,0,0,0,0,0,0,0,0,0,0,0,0,0,0,0,0,0,0,0,0,0,0,0],"sum_hessian":[9.31149E3,4.696325E3,4.6151646E3,4.320963E3,3.7536237E2,2.8263218E3,1.7888429E3,2.931609E2,4.0278022E3,2.6051617E2,2.5658057E3,8.5941144E2,9.2943146E2,2.4053261E2,5.2628284E1,3.9294048E3,9.8397484E1,7.466149E1,1.8585468E2,2.9397789E1,2.536408E3,7.221955E2,1.3721594E2,4.3205875E2,4.9737274E2,9.055859E0,2.3147675E2,4.9400604E1,3.2276828E0,3.849969E3,7.943579E1,2.3931463E1,7.446602E1,5.0428112E1,2.423338E1,2.9093489E1,1.5676118E2,1.880041E1,1.0597379E1,1.0207894E3,1.5156184E3,6.7474567E2,4.7449814E1,1.3519928E2,2.0166667E0,3.758708E2,5.6187965E1,2.8032217E1,4.693405E2,2.9989722E0,6.056886E0,1.7770073E2,5.3776024E1,1.997377E0,4.7403225E1,3.7559192E3,9.404972E1,2.8943108E1,5.0492687E1,1.9708168E1,4.223295E0,7.1509786E0,4.3277134E1,2.2188585E1,2.044795E0,2.0710705E1,8.382783E0,1.9000692E1,1.377605E2,1.0101766E3,1.0612852E1,5.7799695E2,9.6748726E1,3.638181E2,1.2052691E1,3.2072014E1,2.411595E1,2.5007383E1,3.024833E0],"tree_param":{"num_deleted":"0","num_feature":"157","num_nodes":"79","size_leaf_vector":"1"}},{"base_weights":[-4.504875E-3,1.0785028E0,-1.1090214E0,1.3250813E0,-8.448109E-2,-1.5488802E0,-4.1879857E-1,-1.1640744E0,1.4575177E0,-7.7472484E-1,-1.6187067E0,7.4099016E-1,-1.4124184E0,-1.411753E0,1.5968459E0,1.5266527E0,-1.4203697E0,1.1430627E0,-9.997735E-1,-5.428297E-1,-1.6335896E0,1.190012E0,-8.462601E-2,-7.707833E-1,-1.5685395E0,-1.6589694E0,5.327263E-1,8.978175E-2,2.187921E-2,1.5854968E0,-7.3556316E-1,1.2286744E0,-1.6392653E0,-6.604899E-2,1.5072874E0,-8.477931E-2,-6.914614E-1,-8.5506454E-2,1.4187014E0,-2.3761202E-1,-1.6395944E0,2.5368783E-1,8.482375E-2,-1.1438321E0,9.9382716E-1,-1.5966907E0,-2.292417E-1,-8.512423E-2,5.633509E-2,7.420551E-2,-7.834649E-2,-3.5459366E-2,8.0034554E-2,1.728884E-2,-8.8458344E-2,7.470276E-2,2.702134E-2,-8.592374E-2,3.0429069E-2,8.286737E-2,2.0452624E-2,-7.8943856E-2,-1.0998881E-2,8.284842E-2,1.9972173E-2,-7.352065E-2,7.76258E-2,-8.21133E-2,-1.2052371E-2,-4.6965595E-2,6.417718E-2,2.9533321E-2,-7.051772E-2,8.612398E-2,-7.522896E-2,-6.6458836E-2,-8.5292675E-2,9.113605E-2,-7.8334294E-2],"categories":[],"categories_nodes":[],"categories_segments":[],"categories_sizes":[],"default_left":[0,0,0,0,0,0,0,0,0,0,0,0,0,0,0,0,0,0,0,0,0,0,0,0,0,0,0,0,0,0,0,0,0,0,0,0,0,0,0,0,0,0,0,0,0,0,0,0,0,0,0,0,0,0,0,0,0,0,0,0,0,0,0,0,0,0,0,0,0,0,0,0,0,0,0,0,0,0,0],"id":4,"left_children":[1,3,5,7,-1,9,11,13,15,17,19,21,23,25,27,29,31,33,35,37,39,41,-1,43,45,47,49,-1,-1,51,53,55,57,-1,59,-1,61,-1,63,65,67,69,-1,71,73,75,77,-1,-1,-1,-1,-1,-1,-1,-1,-1,-1,-1,-1,-1,-1,-1,-1,-1,-1,-1,-1,-1,-1,-1,-1,-1,-1,-1,-1,-1,-1,-1,-1],"loss_changes":[1.0912684E4,3.1462817E3,1.3705771E3,1.3961548E3,0E0,1.4784521E2,2.0284836E3,1.487616E2,8.013623E2,1.00460434E2,3.9609863E1,8.897699E2,9.374402E1,9.565088E1,3.386963E0,5.233965E2,5.6955826E1,2.4099564E1,4.3123856E1,8.486908E1,2.051709E1,3.2510443E2,0E0,1.2454475E2,2.8341919E1,2.3149323E1,4.8257477E1,0E0,0E0,1.3446191E2,1.1253754E2,6.178322E-1,1.6704681E1,0E0,2.9359818E0,0E0,6.0225563E1,0E0,2.7331753E0,2.8438341E1,8.882324E0,2.987143E2,0E0,7.258757E1,6.312362E1,1.9505493E1,4.9078575E1,0E0,0E0,0E0,0E0,0E0,0E0,0E0,0E0,0E0,0E0,0E0,0E0,0E0,0E0,0E0,0E0,0E0,0E0,0E0,0E0,0E0,0E0,0E0,0E0,0E0,0E0,0E0,0E0,0E0,0E0,0E0,0E0],"parents":[2147483647,0,0,1,1,2,2,3,3,5,5,6,6,7,7,8,8,9,9,10,10,11,11,12,12,13,13,14,14,15,15,16,16,17,17,18,18,19,19,20,20,21,21,23,23,24,24,25,25,26,26,29,29,30,30,31,31,32,32,34,34,36,36,38,38,39,39,40,40,41,41,43,43,44,44,45,45,46,46],"right_children":[2,4,6,8,-1,10,12,14,16,18,20,22,24,26,28,30,32,34,36,38,40,42,-1,44,46,48,50,-1,-1,52,54,56,58,-1,60,-1,62,-1,64,66,68,70,-1,72,74,76,78,-1,-1,-1,-1,-1,-1,-1,-1,-1,-1,-1,-1,-1,-1,-1,-1,-1,-1,-1,-1,-1,-1,-1,-1,-1,-1,-1,-1,-1,-1,-1,-1],"split_conditions":[-4.753934E-1,-2.4024522E-2,-1.328949E-1,-1.7964585E-1,-8.448109E-2,-2.3487744E-1,-7.4939616E-2,5.649186E-1,-2.3200405E-1,-7.61949E-1,-4.4923767E-1,-1.5559681E-1,-1.4311905E0,-4.1108724E-1,2.449487E-2,-1.488995E-1,-4.674441E-1,-1.7289513E-1,-3.915103E-2,-1.5069604E-1,-1.8435086E0,5.6503147E-1,-8.462601E-2,5.578254E-3,7.602324E0,1.1188549E0,-1.1671837E-1,8.978175E-2,2.187921E-2,-5.7309985E-2,-1.5303604E-1,-8.0340534E-2,-2.9984182E-2,-6.604899E-2,-1.705205E-1,-8.477931E-2,-1.813025E-1,-8.5506454E-2,3.1944695E-1,1.0122023E0,1.8086365E0,4.82977E-2,8.482375E-2,-1.9609528E0,-1.7285067E-1,-1.7288828E-1,-1.488367E-1,-8.512423E-2,5.633509E-2,7.420551E-2,-7.834649E-2,-3.5459366E-2,8.0034554E-2,1.728884E-2,-8.8458344E-2,7.470276E-2,2.702134E-2,-8.592374E-2,3.0429069E-2,8.286737E-2,2.0452624E-2,-7.8943856E-2,-1.0998881E-2,8.284842E-2,1.9972173E-2,-7.352065E-2,7.76258E-2,-8.21133E-2,-1.2052371E-2,-4.6965595E-2,6.417718E-2,2.9533321E-2,-7.051772E-2,8.612398E-2,-7.522896E-2,-6.6458836E-2,-8.5292675E-2,9.113605E-2,-7.8334294E-2],"split_indices":[52,4,1,1,0,42,41,156,53,88,52,58,86,51,137,22,54,58,57,1,149,48,0,47,5,93,108,0,0,15,1,1,70,0,0,0,1,0,111,99,139,1,0,12,58,58,22,0,0,0,0,0,0,0,0,0,0,0,0,0,0,0,0,0,0,0,0,0,0,0,0,0,0,0,0,0,0,0,0],"split_type":[0,0,0,0,0,0,0,0,0,0,0,0,0,0,0,0,0,0,0,0,0,0,0,0,0,0,0,0,0,0,0,0,0,0,0,0,0,0,0,0,0,0,0,0,0,0,0,0,0,0,0,0,0,0,0,0,0,0,0,0,0,0,0,0,0,0,0,0,0,0,0,0,0,0,0,0,0,0,0],"sum_hessian":[9.120794E3,4.605249E3,4.515545E3,4.229055E3,3.761939E2,2.757211E3,1.7583339E3,2.1324794E2,4.0158074E3,2.291174E2,2.5280935E3,8.114429E2,9.4689105E2,1.9614105E2,1.7106895E1,3.922058E3,9.374929E1,2.363435E1,2.0548305E2,3.5006084E1,2.4930874E3,6.854731E2,1.2596983E2,1.8646869E2,7.604223E2,1.7414723E2,2.1993822E1,1.4134224E1,2.972671E0,3.8229165E3,9.914145E1,6.8033233E0,8.694597E1,2.7053523E0,2.0928999E1,6.1711098E1,1.4377194E2,2.2026417E1,1.2979667E1,1.0851846E1,2.4822356E3,2.4114911E2,4.4432394E2,1.5421793E2,3.2250767E1,7.445796E2,1.584273E1,1.7185156E2,2.2956595E0,1.5337396E1,6.6564264E0,2.4846737E1,3.7980698E3,4.877709E1,5.036436E1,4.065067E0,2.7382565E0,8.421394E1,2.7320256E0,1.7965183E1,2.963815E0,4.9068195E1,9.470375E1,1.0013255E1,2.9664116E0,6.532045E0,4.319801E0,2.4773289E3,4.906706E0,1.11765854E2,1.2938326E2,2.0378782E1,1.3383914E2,2.5209162E1,7.041605E0,2.1960152E2,5.249781E2,6.108293E0,9.734436E0],"tree_param":{"num_deleted":"0","num_feature":"157","num_nodes":"79","size_leaf_vector":"1"}},{"base_weights":[-1.6388752E-2,1.0165774E0,-1.1153471E0,1.5868161E0,-1.6087674E-1,-1.5366973E0,-4.4390407E-1,1.3961102E-1,1.6198887E0,6.9770616E-1,-9.99422E-1,-9.8998797E-1,-1.583426E0,-1.1033581E0,1.1337752E0,7.831874E-1,-8.215729E-2,1.627763E0,-7.6323204E-2,-1.0465988E0,1.1063628E0,-1.5502778E0,-1.9148289E-1,-1.4243928E0,-4.5918238E-1,-8.9812255E-1,-1.5895854E0,7.2722006E-1,-1.3890905E0,8.196886E-2,-8.061881E-2,-4.8541504E-1,1.1705259E0,1.6323812E0,-6.113601E-1,-1.3756286E0,8.45452E-1,1.3017555E0,-8.206767E-2,-1.5955354E0,-2.9217818E-1,-1.0136158E0,6.894579E-1,3.9510183E-2,-1.6121123E0,-8.239134E-2,3.1166196E-1,7.544481E-2,-7.78567E-2,-9.0561736E-1,-1.5954802E0,-6.257721E-1,1.392689E0,-1.0418352E0,-1.6037501E0,7.6497585E-2,-7.941782E-2,-2.291686E-2,7.132321E-2,1.3866814E-2,8.1681274E-2,-7.735431E-2,5.691244E-2,-7.425345E-2,2.3446787E-2,7.2017886E-2,-7.2097585E-2,7.67076E-2,8.024836E-3,-1.6848624E-3,-8.062156E-2,-7.7240855E-2,5.8210284E-2,-2.385751E-2,-7.63826E-2,5.780675E-2,-6.984032E-2,-7.112428E-2,5.737684E-2,4.1752268E-2,-8.4108554E-2,3.5028096E-2,-8.019598E-2,3.5437446E-2,-7.733031E-2,-7.99346E-2,-3.412439E-2,1.2035458E-2,-8.7767206E-2,8.16964E-2,-2.7640242E-2,-6.47886E-2,1.8197475E-2,-4.600182E-2,-8.138763E-2],"categories":[],"categories_nodes":[],"categories_segments":[],"categories_sizes":[],"default_left":[0,0,0,0,0,0,0,0,0,0,0,0,0,0,0,0,0,0,0,0,0,0,0,0,0,0,0,0,0,0,0,0,0,0,0,0,0,0,0,0,0,0,0,0,0,0,0,0,0,0,0,0,0,0,0,0,0,0,0,0,0,0,0,0,0,0,0,0,0,0,0,0,0,0,0,0,0,0,0,0,0,0,0,0,0,0,0,0,0,0,0,0,0,0,0],"id":5,"left_children":[1,3,5,7,9,11,13,15,17,19,21,23,25,27,29,31,-1,33,-1,35,37,39,41,43,45,47,49,51,53,-1,-1,55,57,59,61,63,65,67,-1,69,71,73,75,77,79,-1,81,-1,-1,83,85,87,89,91,93,-1,-1,-1,-1,-1,-1,-1,-1,-1,-1,-1,-1,-1,-1,-1,-1,-1,-1,-1,-1,-1,-1,-1,-1,-1,-1,-1,-1,-1,-1,-1,-1,-1,-1,-1,-1,-1,-1,-1,-1],"loss_changes":[1.0088219E4,3.0760557E3,1.217502E3,1.4749707E2,1.0774635E3,6.601074E1,1.7300198E3,8.165884E1,7.724121E1,5.2832886E2,3.3662775E2,4.7990234E1,8.852051E0,6.142014E2,6.8340735E2,2.61922E1,0E0,3.2125977E1,0E0,8.887279E1,3.2408698E2,2.5155884E1,2.2379935E2,3.18143E1,8.886041E1,4.0406525E1,8.281738E0,1.4397449E2,7.394336E1,0E0,0E0,3.1114697E1,1.7430504E1,4.6123047E0,1.3095547E1,2.5001358E1,3.1321259E1,1.4838867E2,0E0,1.14021E1,3.2537674E1,4.3322754E1,1.4697354E2,2.4486355E1,1.8966064E1,0E0,4.53234E1,0E0,0E0,2.481914E1,5.9179688E0,5.2384693E1,5.1049652E1,1.3982425E2,8.759277E0,0E0,0E0,0E0,0E0,0E0,0E0,0E0,0E0,0E0,0E0,0E0,0E0,0E0,0E0,0E0,0E0,0E0,0E0,0E0,0E0,0E0,0E0,0E0,0E0,0E0,0E0,0E0,0E0,0E0,0E0,0E0,0E0,0E0,0E0,0E0,0E0,0E0,0E0,0E0,0E0],"parents":[2147483647,0,0,1,1,2,2,3,3,4,4,5,5,6,6,7,7,8,8,9,9,10,10,11,11,12,12,13,13,14,14,15,15,17,17,19,19,20,20,21,21,22,22,23,23,24,24,25,25,26,26,27,27,28,28,31,31,32,32,33,33,34,34,35,35,36,36,37,37,39,39,40,40,41,41,42,42,43,43,44,44,46,46,49,49,50,50,51,51,52,52,53,53,54,54],"right_children":[2,4,6,8,10,12,14,16,18,20,22,24,26,28,30,32,-1,34,-1,36,38,40,42,44,46,48,50,52,54,-1,-1,56,58,60,62,64,66,68,-1,70,72,74,76,78,80,-1,82,-1,-1,84,86,88,90,92,94,-1,-1,-1,-1,-1,-1,-1,-1,-1,-1,-1,-1,-1,-1,-1,-1,-1,-1,-1,-1,-1,-1,-1,-1,-1,-1,-1,-1,-1,-1,-1,-1,-1,-1,-1,-1,-1,-1,-1,-1],"split_conditions":[-4.6033973E-1,-6.941726E-1,-1.2855658E-1,-2.6441646E-1,-1.4703926E0,-2.3486724E-1,9.268908E-1,-1.6181444E-1,-4.693209E-2,-1.6946268E-1,9.230107E-1,-1.623443E-1,-8.368856E-1,-2.3921692E-1,-1.2693918E-1,-1.6946268E-1,-8.215729E-2,-1.2277127E-1,-7.6323204E-2,-1.7632727E-2,3.943924E-1,-4.1174766E-1,1.0186019E0,-9.1113013E-1,-1.6359217E-1,-1.488912E-1,-1.2802436E0,4.82977E-2,-1.7286639E-1,8.196886E-2,-8.061881E-2,-3.914642E-2,-1.3735975E0,-1.6594096E-1,-8.0340534E-2,-1.0848873E0,-3.5532305E-1,-1.4584E-1,-8.206767E-2,-1.2345033E0,6.538019E-1,1.6130626E-1,-1.6399778E-1,5.460604E-1,-9.257894E-1,-8.239134E-2,-1.6321121E-1,7.544481E-2,-7.78567E-2,-2.4278341E-1,2.211306E0,-5.111632E-1,1.0186019E0,-2.6214074E-2,-1.4890628E-1,7.6497585E-2,-7.941782E-2,-2.291686E-2,7.132321E-2,1.3866814E-2,8.1681274E-2,-7.735431E-2,5.691244E-2,-7.425345E-2,2.3446787E-2,7.2017886E-2,-7.2097585E-2,7.67076E-2,8.024836E-3,-1.6848624E-3,-8.062156E-2,-7.7240855E-2,5.8210284E-2,-2.385751E-2,-7.63826E-2,5.780675E-2,-6.984032E-2,-7.112428E-2,5.737684E-2,4.1752268E-2,-8.4108554E-2,3.5028096E-2,-8.019598E-2,3.5437446E-2,-7.733031E-2,-7.99346E-2,-3.412439E-2,1.2035458E-2,-8.7767206E-2,8.16964E-2,-2.7640242E-2,-6.47886E-2,1.8197475E-2,-4.600182E-2,-8.138763E-2],"split_indices":[52,89,1,76,79,42,45,8,3,1,62,1,124,40,21,1,0,1,0,71,55,51,2,138,7,22,120,1,58,0,0,63,19,10,1,91,155,1,0,131,113,118,10,108,96,0,7,0,0,46,148,88,2,36,22,0,0,0,0,0,0,0,0,0,0,0,0,0,0,0,0,0,0,0,0,0,0,0,0,0,0,0,0,0,0,0,0,0,0,0,0,0,0,0,0],"split_type":[0,0,0,0,0,0,0,0,0,0,0,0,0,0,0,0,0,0,0,0,0,0,0,0,0,0,0,0,0,0,0,0,0,0,0,0,0,0,0,0,0,0,0,0,0,0,0,0,0,0,0,0,0,0,0,0,0,0,0,0,0,0,0,0,0,0,0,0,0,0,0,0,0,0,0,0,0,0,0,0,0,0,0,0,0,0,0,0,0,0,0,0,0,0,0],"sum_hessian":[8.884837E3,4.5799688E3,4.3048677E3,3.0853787E3,1.4945903E3,2.6442407E3,1.6606272E3,6.905067E1,3.016328E3,7.38555E2,7.5603534E2,2.099607E2,2.43428E3,1.1713256E3,4.8930167E2,5.1147186E1,1.790348E1,3.0092793E3,7.0486917E0,1.3988985E2,5.986651E2,4.489921E2,3.0704324E2,1.145395E2,9.54212E1,2.2991745E1,2.4112883E3,1.579372E2,1.01338837E3,4.135625E2,7.573917E1,1.1904529E1,3.9242657E1,3.003356E3,5.9233384E0,1.1939914E2,2.049071E1,5.5941113E2,3.925401E1,4.3314246E2,1.584964E1,1.5874487E2,1.4829837E2,1.3108016E1,1.0143148E2,3.7090244E1,5.8330956E1,4.664643E0,1.8327103E1,2.1925388E1,2.3893628E3,5.209018E1,1.0584702E2,3.89365E2,6.240233E2,4.073679E0,7.8308496E0,5.2214007E0,3.4021255E1,2.9604797E0,3.0003955E3,3.9347224E0,1.9886161E0,1.1289579E2,6.5033526E0,1.6555325E1,3.9353838E0,4.644833E2,9.4927795E1,4.667601E0,4.2847485E2,8.4882E0,7.36144E0,7.862126E1,8.012362E1,1.21553795E2,2.6744572E1,5.528968E0,7.5790486E0,2.519126E0,9.891235E1,4.9014378E1,9.31658E0,6.201316E0,1.57240715E1,2.3802385E3,9.1243925E0,2.9923283E1,2.2166895E1,9.431252E1,1.1534497E1,3.2985858E2,5.9506424E1,2.2497791E1,6.015256E2],"tree_param":{"num_deleted":"0","num_feature":"157","num_nodes":"95","size_leaf_vector":"1"}},{"base_weights":[-1.866797E-3,9.8981565E-1,-1.0667975E0,1.5373319E0,-1.6119193E-1,-6.26647E-1,-1.5843099E0,3.8573454E-4,1.5710683E0,3.081039E-1,-7.938283E-2,-1.1221545E0,1.5661402E0,-7.940039E-2,-8.4803635E-1,6.801773E-1,-7.9365425E-2,1.5788091E0,-7.393041E-2,-1.3926771E0,5.591214E-1,-1.9261102E-1,-1.3268882E0,-6.545709E-2,7.983962E-2,-7.155597E-2,6.5992184E-2,-7.48237E-1,1.2739762E0,1.581233E0,-6.0398698E-2,1.1132381E0,-1.5770301E0,7.529976E-1,-9.997469E-1,-8.1307024E-2,4.4384736E-1,-1.5424939E0,-1.1012774E0,5.2054197E-2,-8.500725E-2,-5.4505706E-2,7.060938E-2,2.2000251E-2,7.910558E-2,-5.1644426E-2,7.898945E-2,-8.117514E-2,-7.336948E-3,5.1746108E-2,5.037398E-3,-1.7564287E-2,-8.468634E-2,5.9687294E-2,-3.9320365E-3,-7.8050844E-2,4.3113407E-2,-6.685018E-2,-3.29062E-2],"categories":[],"categories_nodes":[],"categories_segments":[],"categories_sizes":[],"default_left":[0,0,0,0,0,0,0,0,0,0,0,0,0,0,0,0,0,0,0,0,0,0,0,0,0,0,0,0,0,0,0,0,0,0,0,0,0,0,0,0,0,0,0,0,0,0,0,0,0,0,0,0,0,0,0,0,0,0,0],"id":6,"left_children":[1,3,5,7,9,11,13,15,17,19,-1,21,23,-1,25,27,-1,29,-1,31,33,35,37,-1,-1,-1,-1,39,41,43,-1,45,47,49,51,-1,53,55,57,-1,-1,-1,-1,-1,-1,-1,-1,-1,-1,-1,-1,-1,-1,-1,-1,-1,-1,-1,-1],"loss_changes":[9.322201E3,2.8807524E3,9.685488E2,1.6060791E2,9.874344E2,2.502744E3,3.9780273E0,7.396604E1,7.388818E1,4.747402E2,0E0,3.5716357E2,3.9519287E1,0E0,1.695517E1,4.1653954E1,0E0,2.2334473E1,0E0,6.784723E1,2.9334192E2,3.1107913E2,7.315991E1,0E0,0E0,0E0,0E0,2.6842644E1,1.2735348E1,2.3330078E0,0E0,1.2034799E1,8.647003E0,1.5833014E2,4.778878E1,0E0,9.2701996E1,3.628662E1,7.804358E1,0E0,0E0,0E0,0E0,0E0,0E0,0E0,0E0,0E0,0E0,0E0,0E0,0E0,0E0,0E0,0E0,0E0,0E0,0E0,0E0],"parents":[2147483647,0,0,1,1,2,2,3,3,4,4,5,5,6,6,7,7,8,8,9,9,11,11,12,12,14,14,15,15,17,17,19,19,20,20,21,21,22,22,27,27,28,28,29,29,31,31,32,32,33,33,34,34,36,36,37,37,38,38],"right_children":[2,4,6,8,10,12,14,16,18,20,-1,22,24,-1,26,28,-1,30,-1,32,34,36,38,-1,-1,-1,-1,40,42,44,-1,46,48,50,52,-1,54,56,58,-1,-1,-1,-1,-1,-1,-1,-1,-1,-1,-1,-1,-1,-1,-1,-1,-1,-1,-1,-1],"split_conditions":[-4.6033973E-1,-6.941726E-1,-1.6557972E-1,-2.6441646E-1,-2.2710646E-2,-1.538106E-1,1.2075591E0,-1.4890268E-1,-4.693209E-2,-3.9151106E-2,-7.938283E-2,-2.3921692E-1,-2.822272E-2,-7.940039E-2,2.5043433E0,-2.3935945E-1,-7.9365425E-2,-1.6412506E-1,-7.393041E-2,-4.8818633E-1,-1.2294771E-1,-5.649178E-2,-5.6489408E-2,-6.545709E-2,7.983962E-2,-7.155597E-2,6.5992184E-2,-1.0429682E0,-6.326876E-1,-1.7624749E-1,-6.0398698E-2,1.0186019E0,9.602736E-1,-1.4700272E0,-6.490144E-1,-8.1307024E-2,-5.648615E-2,2.211306E0,1.0186019E0,5.2054197E-2,-8.500725E-2,-5.4505706E-2,7.060938E-2,2.2000251E-2,7.910558E-2,-5.1644426E-2,7.898945E-2,-8.117514E-2,-7.336948E-3,5.1746108E-2,5.037398E-3,-1.7564287E-2,-8.468634E-2,5.9687294E-2,-3.9320365E-3,-7.8050844E-2,4.3113407E-2,-6.685018E-2,-3.29062E-2],"split_indices":[52,89,58,76,13,60,109,28,3,57,0,40,76,0,3,40,0,80,0,52,18,15,15,0,0,0,0,110,149,18,0,2,130,80,89,0,15,148,2,0,0,0,0,0,0,0,0,0,0,0,0,0,0,0,0,0,0,0,0],"split_type":[0,0,0,0,0,0,0,0,0,0,0,0,0,0,0,0,0,0,0,0,0,0,0,0,0,0,0,0,0,0,0,0,0,0,0,0,0,0,0,0,0,0,0,0,0,0,0,0,0,0,0,0,0,0,0,0,0,0,0],"sum_hessian":[8.82523E3,4.5698115E3,4.2554194E3,3.0965132E3,1.4732983E3,2.3007847E3,1.9546345E3,6.65311E1,3.0299822E3,1.1091731E3,3.6412534E2,1.8771016E3,4.2368323E2,1.9437155E3,1.0919044E1,4.6985325E1,1.9545773E1,3.0227917E3,7.190399E0,1.4206395E2,9.671091E2,3.3916168E2,1.5379398E3,4.029102E0,4.196541E2,8.872506E0,2.0465374E0,1.3720313E1,3.326501E1,3.0205972E3,2.1945984E0,9.389777E0,1.3267416E2,8.605941E2,1.0651497E2,1.0380381E2,2.3535788E2,7.8342255E2,7.545173E2,4.7319283E0,8.988384E0,1.4569386E0,3.1808073E1,2.7092402E0,3.017888E3,1.4599857E0,7.9297915E0,1.2836818E2,4.3059897E0,6.0046564E2,2.6012848E2,5.5841938E1,5.0673035E1,9.611893E1,1.3923895E2,7.777825E2,5.6400537E0,4.912109E2,2.6330634E2],"tree_param":{"num_deleted":"0","num_feature":"157","num_nodes":"59","size_leaf_vector":"1"}},{"base_weights":[-1.670178E-3,9.588334E-1,-1.0379809E0,1.4947753E0,-1.5613163E-1,-6.124619E-1,-1.5392816E0,6.350393E-2,1.5266669E0,6.6651565E-1,-9.633855E-1,-1.1075166E0,1.5197484E0,-7.714643E-2,-7.562507E-1,1.2852833E0,-8.3867645E-1,1.5351619E0,-7.208466E-2,8.81022E-1,-7.808183E-2,-1.4655267E0,-9.886191E-2,-1.972947E-1,-1.294794E0,-6.432099E-2,7.75389E-2,-6.8725936E-2,6.387512E-2,-4.699446E-2,1.4147767E0,-1.4452912E0,8.0183715E-1,1.5367607E0,-5.10583E-2,1.2699488E0,3.935761E-1,-1.5079638E0,-1.250311E-1,-8.5273665E-1,7.370916E-1,-7.805472E-2,1.9459845E-1,-1.3602215E0,-5.2568424E-1,3.231874E-2,7.788448E-2,-8.2901694E-2,4.2292174E-2,-5.9575904E-2,7.004064E-2,2.1258626E-2,7.688157E-2,-4.6789404E-3,6.655817E-2,3.0108605E-2,-8.412045E-2,-7.611851E-2,1.2893698E-2,-7.2450794E-2,5.5444695E-2,3.0193934E-2,-5.6341894E-2,5.381313E-2,-7.86872E-2,5.0356645E-2,-1.615729E-2,-7.480172E-2,-5.2643236E-2,4.1945737E-2,-7.390689E-2],"categories":[],"categories_nodes":[],"categories_segments":[],"categories_sizes":[],"default_left":[0,0,0,0,0,0,0,0,0,0,0,0,0,0,0,0,0,0,0,0,0,0,0,0,0,0,0,0,0,0,0,0,0,0,0,0,0,0,0,0,0,0,0,0,0,0,0,0,0,0,0,0,0,0,0,0,0,0,0,0,0,0,0,0,0,0,0,0,0,0,0],"id":7,"left_children":[1,3,5,7,9,11,13,15,17,19,21,23,25,-1,27,29,31,33,-1,35,-1,37,39,41,43,-1,-1,-1,-1,-1,45,47,49,51,-1,53,55,57,59,61,63,-1,65,67,69,-1,-1,-1,-1,-1,-1,-1,-1,-1,-1,-1,-1,-1,-1,-1,-1,-1,-1,-1,-1,-1,-1,-1,-1,-1,-1],"loss_changes":[8.620081E3,2.6859102E3,8.876465E2,1.384585E2,9.701762E2,2.3817544E3,4.293457E0,7.515642E1,7.708789E1,3.4725778E2,3.1991797E2,3.1177905E2,3.902661E1,0E0,1.5367146E1,9.669048E0,4.0233124E1,1.3672852E1,0E0,1.2476813E2,0E0,2.6338684E1,1.7202173E2,1.678777E2,7.5670654E1,0E0,0E0,0E0,0E0,0E0,2.0403862E0,1.5548237E1,1.5092447E1,2.2114258E0,0E0,3.0763245E1,1.2862633E2,1.1888916E1,2.6765604E1,5.7960846E1,1.0319039E2,0E0,1.03157845E2,5.679541E1,1.5803534E2,0E0,0E0,0E0,0E0,0E0,0E0,0E0,0E0,0E0,0E0,0E0,0E0,0E0,0E0,0E0,0E0,0E0,0E0,0E0,0E0,0E0,0E0,0E0,0E0,0E0,0E0],"parents":[2147483647,0,0,1,1,2,2,3,3,4,4,5,5,6,6,7,7,8,8,9,9,10,10,11,11,12,12,14,14,15,15,16,16,17,17,19,19,21,21,22,22,23,23,24,24,30,30,31,31,32,32,33,33,35,35,36,36,37,37,38,38,39,39,40,40,42,42,43,43,44,44],"right_children":[2,4,6,8,10,12,14,16,18,20,22,24,26,-1,28,30,32,34,-1,36,-1,38,40,42,44,-1,-1,-1,-1,-1,46,48,50,52,-1,54,56,58,60,62,64,-1,66,68,70,-1,-1,-1,-1,-1,-1,-1,-1,-1,-1,-1,-1,-1,-1,-1,-1,-1,-1,-1,-1,-1,-1,-1,-1,-1,-1],"split_conditions":[-4.6033973E-1,-6.941726E-1,-1.6557972E-1,-2.637518E-1,-1.4703926E0,-1.538106E-1,1.2075591E0,-1.72826E-1,-4.693209E-2,-2.3188606E-1,9.23473E-1,-2.3923475E-1,2.142646E-1,-7.714643E-2,2.5043433E0,-1.6195151E-1,6.7227453E-1,-1.6906255E-1,-7.208466E-2,-2.6235858E-1,-7.808183E-2,-4.1108724E-1,1.0186019E0,-3.915103E-2,-3.126831E-2,-6.432099E-2,7.75389E-2,-6.8725936E-2,6.387512E-2,-4.699446E-2,-1.338562E-1,6.241197E-1,-1.0994464E0,-1.6594096E-1,-5.10583E-2,-1.6093275E-1,-1.2294771E-1,2.146899E0,-2.4583489E-1,-4.8256502E-1,-1.4890693E-1,-7.805472E-2,-3.914631E-2,1.0186019E0,9.928707E-1,3.231874E-2,7.788448E-2,-8.2901694E-2,4.2292174E-2,-5.9575904E-2,7.004064E-2,2.1258626E-2,7.688157E-2,-4.6789404E-3,6.655817E-2,3.0108605E-2,-8.412045E-2,-7.611851E-2,1.2893698E-2,-7.2450794E-2,5.5444695E-2,3.0193934E-2,-5.6341894E-2,5.381313E-2,-7.86872E-2,5.0356645E-2,-1.615729E-2,-7.480172E-2,-5.2643236E-2,4.1945737E-2,-7.390689E-2],"split_indices":[52,89,58,78,79,60,109,17,3,53,61,40,78,0,3,154,121,79,0,82,0,51,2,57,34,0,0,0,0,0,155,125,102,10,0,60,18,73,141,98,22,0,63,2,52,0,0,0,0,0,0,0,0,0,0,0,0,0,0,0,0,0,0,0,0,0,0,0,0,0,0],"split_type":[0,0,0,0,0,0,0,0,0,0,0,0,0,0,0,0,0,0,0,0,0,0,0,0,0,0,0,0,0,0,0,0,0,0,0,0,0,0,0,0,0,0,0,0,0,0,0,0,0,0,0,0,0,0,0,0,0,0,0,0,0,0,0,0,0,0,0,0,0,0,0],"sum_hessian":[8.658089E3,4.4934316E3,4.1646577E3,3.034477E3,1.4589543E3,2.253793E3,1.9108647E3,6.620566E1,2.9682715E3,7.226741E2,7.362803E2,1.8295015E3,4.2429147E2,1.9010399E3,9.824836E0,2.794137E1,3.826429E1,2.9602822E3,7.9891057E0,6.597627E2,6.291138E1,4.6531577E2,2.709645E2,3.1253656E2,1.516965E3,4.1978416E0,4.2009363E2,7.782942E0,2.0418942E0,1.192452E0,2.6748919E1,2.802168E1,1.0242611E1,2.9588306E3,1.4516954E0,3.6607263E2,2.9369006E2,4.5091586E2,1.4399909E1,1.4246631E2,1.284982E2,6.909622E1,2.4344034E2,1.3973269E3,1.1963802E2,5.0608788E0,2.168804E1,2.589366E1,2.1280217E0,2.1380498E0,8.104561E0,2.6987224E0,2.9561318E3,1.5705694E1,3.5036694E2,2.675195E2,2.6170553E1,4.4740366E2,3.5122013E0,6.862367E0,7.537542E0,2.2372475E1,1.2009383E2,1.1251775E2,1.598045E1,9.437904E1,1.490613E2,9.6642267E2,4.3090424E2,4.922771E1,7.041032E1],"tree_param":{"num_deleted":"0","num_feature":"157","num_nodes":"71","size_leaf_vector":"1"}},{"base_weights":[6.608717E-3,9.577772E-1,-9.507153E-1,1.4619403E0,-1.0152816E-1,-5.413336E-1,-1.4997864E0,-4.6732474E-2,1.4912456E0,6.585101E-1,-8.5821223E-1,-9.5220244E-1,1.4992021E0,1.5026906E-1,-7.514831E-2,8.4686023E-1,-7.763755E-2,1.4947984E0,-6.1040282E-2,8.918377E-1,-1.3564556E0,-1.4481997E0,1.0175188E-1,-1.2050237E-1,-1.2007889E0,7.513397E-2,3.0782783E-2,-5.0847974E-2,5.3582847E-2,-7.8980273E-1,1.3813435E0,1.4963635E0,-4.7760744E-2,1.108585E0,-1.7747933E-1,-7.6630384E-2,3.540783E-1,-1.4628525E0,3.0634983E-2,-8.193697E-1,8.9595944E-1,-1.3424885E0,4.262947E-1,-1.4613136E0,-9.483495E-1,6.0494304E-2,-7.491381E-2,1.6200043E-2,7.4484505E-2,7.4941896E-2,5.7918902E-2,-5.9116136E-2,5.7899248E-2,6.431597E-2,-4.0288318E-2,7.186485E-2,-6.616558E-2,-7.390042E-2,2.4345335E-2,-5.617078E-2,6.4339615E-2,6.196745E-2,-6.0808092E-2,-7.558318E-2,1.2549755E-2,3.680713E-2,-3.9169207E-2,-7.526612E-2,-2.7839584E-2,-2.0170314E-2,-6.333321E-2],"categories":[],"categories_nodes":[],"categories_segments":[],"categories_sizes":[],"default_left":[0,0,0,0,0,0,0,0,0,0,0,0,0,0,0,0,0,0,0,0,0,0,0,0,0,0,0,0,0,0,0,0,0,0,0,0,0,0,0,0,0,0,0,0,0,0,0,0,0,0,0,0,0,0,0,0,0,0,0,0,0,0,0,0,0,0,0,0,0,0,0],"id":8,"left_children":[1,3,5,7,9,11,13,15,17,19,21,23,25,27,-1,29,-1,31,-1,33,35,37,39,41,43,-1,-1,-1,-1,45,47,49,-1,51,53,-1,55,57,-1,59,61,63,65,67,69,-1,-1,-1,-1,-1,-1,-1,-1,-1,-1,-1,-1,-1,-1,-1,-1,-1,-1,-1,-1,-1,-1,-1,-1,-1,-1],"loss_changes":[7.734943E3,2.275776E3,9.5081104E2,1.2771094E2,7.913099E2,2.0360947E3,9.710449E0,7.665145E1,2.9111816E1,3.2397482E2,3.9061688E2,4.1763867E2,3.2580566E-1,5.806632E0,0E0,3.2390976E1,0E0,1.2276367E1,0E0,1.4293924E2,2.2129883E1,1.3792664E1,1.9340157E2,3.1201245E2,1.0092212E2,0E0,0E0,0E0,0E0,1.5193163E1,2.6489677E0,6.2890625E-1,0E0,5.9337097E1,9.728971E1,0E0,1.5531878E1,1.3259033E1,0E0,7.98664E1,1.0442662E2,3.928784E1,1.2155702E2,2.9562378E1,1.3703143E2,0E0,0E0,0E0,0E0,0E0,0E0,0E0,0E0,0E0,0E0,0E0,0E0,0E0,0E0,0E0,0E0,0E0,0E0,0E0,0E0,0E0,0E0,0E0,0E0,0E0,0E0],"parents":[2147483647,0,0,1,1,2,2,3,3,4,4,5,5,6,6,7,7,8,8,9,9,10,10,11,11,12,12,13,13,15,15,17,17,19,19,20,20,21,21,22,22,23,23,24,24,29,29,30,30,31,31,33,33,34,34,36,36,37,37,39,39,40,40,41,41,42,42,43,43,44,44],"right_children":[2,4,6,8,10,12,14,16,18,20,22,24,26,28,-1,30,-1,32,-1,34,36,38,40,42,44,-1,-1,-1,-1,46,48,50,-1,52,54,-1,56,58,-1,60,62,64,66,68,70,-1,-1,-1,-1,-1,-1,-1,-1,-1,-1,-1,-1,-1,-1,-1,-1,-1,-1,-1,-1,-1,-1,-1,-1,-1,-1],"split_conditions":[-4.8050573E-1,-6.941726E-1,-1.3884787E-1,-2.637518E-1,-1.4703926E0,9.268908E-1,-4.716787E-1,-1.6312543E-1,-4.693209E-2,3.943924E-1,9.23473E-1,-2.4307236E-1,-4.693209E-2,-1.6593942E-1,-7.514831E-2,-2.3935945E-1,-7.763755E-2,-1.6906255E-1,-6.1040282E-2,-1.5566982E-1,1.0186019E0,-4.621995E-1,1.0186019E0,-5.649178E-2,-5.6489408E-2,7.513397E-2,3.0782783E-2,-5.0847974E-2,5.3582847E-2,-5.7382766E-2,-2.6044196E-1,-1.6312116E-1,-4.7760744E-2,-5.7309985E-2,-2.551652E-1,-7.6630384E-2,-1.8416884E0,2.146899E0,3.0634983E-2,-2.271776E-1,-1.4891085E-1,-9.517863E-2,-3.4777093E-1,8.980034E-3,-1.4888842E-1,6.0494304E-2,-7.491381E-2,1.6200043E-2,7.4484505E-2,7.4941896E-2,5.7918902E-2,-5.9116136E-2,5.7899248E-2,6.431597E-2,-4.0288318E-2,7.186485E-2,-6.616558E-2,-7.390042E-2,2.4345335E-2,-5.617078E-2,6.4339615E-2,6.196745E-2,-6.0808092E-2,-7.558318E-2,1.2549755E-2,3.680713E-2,-3.9169207E-2,-7.526612E-2,-2.7839584E-2,-2.0170314E-2,-6.333321E-2],"split_indices":[52,89,66,78,79,45,52,59,3,55,61,46,3,0,0,40,0,79,0,16,2,54,2,15,15,0,0,0,0,15,147,59,0,15,83,0,11,73,0,39,22,75,89,41,22,0,0,0,0,0,0,0,0,0,0,0,0,0,0,0,0,0,0,0,0,0,0,0,0,0,0],"split_type":[0,0,0,0,0,0,0,0,0,0,0,0,0,0,0,0,0,0,0,0,0,0,0,0,0,0,0,0,0,0,0,0,0,0,0,0,0,0,0,0,0,0,0,0,0,0,0,0,0,0,0,0,0,0,0,0,0,0,0,0,0,0,0,0,0,0,0,0,0,0,0],"sum_hessian":[8.492557E3,4.2599736E3,4.232583E3,2.8860256E3,1.3739479E3,2.4258674E3,1.8067155E3,5.4980328E1,2.8310454E3,6.855195E2,6.8842847E2,2.0197227E3,4.0614468E2,3.385803E0,1.8033296E3,3.4780865E1,2.0199463E1,2.8277898E3,3.255554E0,6.1487585E2,7.064358E1,4.2606384E2,2.623646E2,4.6510324E2,1.5546194E3,4.038545E2,2.2901785E0,1.4478803E0,1.9379228E0,8.444604E0,2.633626E1,2.8263735E3,1.4162365E0,5.11217E2,1.03658844E2,6.414218E1,6.501395E0,4.2334412E2,2.7197356E0,1.2146169E2,1.409029E2,1.4333096E2,3.2177228E2,7.627012E2,7.919183E2,2.0240164E0,6.4205875E0,2.8187537E0,2.3517506E1,2.8024229E3,2.395079E1,1.0306838E1,5.009102E2,3.0815886E1,7.284296E1,4.0373225E0,2.4640727E0,4.2031888E2,3.0252433E0,1.06547134E2,1.491456E1,1.2155385E2,1.9349052E1,1.2962088E2,1.3710087E1,2.5647107E2,6.53012E1,7.266808E2,3.6020424E1,2.9284525E2,4.99073E2],"tree_param":{"num_deleted":"0","num_feature":"157","num_nodes":"71","size_leaf_vector":"1"}},{"base_weights":[-1.1131061E-3,9.1051906E-1,-9.8777044E-1,1.4386804E0,-8.1222355E-2,-5.896764E-1,-1.4626058E0,1.4461346E0,-8.366557E-1,6.6292083E-1,-8.3922124E-1,-1.0443698E0,1.4432378E0,-7.331806E-2,-6.4120346E-1,5.408248E-1,1.4597305E0,4.8212994E-2,-6.830768E-2,8.7797225E-1,-1.4157835E0,-1.3446618E0,-5.243726E-2,-2.916823E-1,-1.2004205E0,-6.153017E-2,7.370637E-2,-6.457081E-2,6.3858114E-2,1.0551848E0,-7.052874E-2,-6.3099556E-2,7.3081605E-2,9.8778915E-1,-8.922052E-1,-7.5260095E-2,5.66643E-2,-1.3710121E0,6.742865E-1,4.0985483E-1,-1.3784376E0,-1.1769344E0,1.6259207E-1,-1.2702391E0,-5.2414364E-1,-5.7357784E-2,6.0900193E-2,6.333332E-2,2.8901506E-2,-7.354005E-2,7.082829E-2,-1.4188665E-2,-6.979961E-2,7.067805E-2,-5.453763E-2,-2.1884514E-2,5.1935684E-2,5.4393113E-2,-7.352853E-2,2.2456711E-2,-6.743076E-2,-6.026407E-2,2.1293359E-2,-6.49276E-2,3.5990402E-2,2.6766151E-2,-6.532764E-2],"categories":[],"categories_nodes":[],"categories_segments":[],"categories_sizes":[],"default_left":[0,0,0,0,0,0,0,0,0,0,0,0,0,0,0,0,0,0,0,0,0,0,0,0,0,0,0,0,0,0,0,0,0,0,0,0,0,0,0,0,0,0,0,0,0,0,0,0,0,0,0,0,0,0,0,0,0,0,0,0,0,0,0,0,0,0,0],"id":9,"left_children":[1,3,5,7,9,11,13,15,17,19,21,23,25,-1,27,29,31,-1,-1,33,35,37,39,41,43,-1,-1,-1,-1,45,-1,-1,-1,47,49,-1,-1,51,53,55,57,59,61,63,65,-1,-1,-1,-1,-1,-1,-1,-1,-1,-1,-1,-1,-1,-1,-1,-1,-1,-1,-1,-1,-1,-1],"loss_changes":[7.4505176E3,2.2552363E3,7.510825E2,4.8856934E1,8.4496954E2,2.0031904E3,4.6538086E0,3.3680664E1,1.0668936E1,3.3918622E2,2.9502277E2,2.0758008E2,3.454077E1,0E0,1.4160511E1,4.467236E1,1.6120605E1,0E0,0E0,1.3418158E2,1.7948242E1,2.495819E1,1.7912337E2,1.2297274E2,6.855127E1,0E0,0E0,0E0,0E0,1.3811752E1,0E0,0E0,0E0,7.3103455E1,5.629277E1,0E0,0E0,1.1724243E1,1.0011049E1,1.15982925E2,1.8762222E1,2.9544724E1,7.349361E1,7.576318E1,1.1582518E2,0E0,0E0,0E0,0E0,0E0,0E0,0E0,0E0,0E0,0E0,0E0,0E0,0E0,0E0,0E0,0E0,0E0,0E0,0E0,0E0,0E0,0E0],"parents":[2147483647,0,0,1,1,2,2,3,3,4,4,5,5,6,6,7,7,8,8,9,9,10,10,11,11,12,12,14,14,15,15,16,16,19,19,20,20,21,21,22,22,23,23,24,24,29,29,33,33,34,34,37,37,38,38,39,39,40,40,41,41,42,42,43,43,44,44],"right_children":[2,4,6,8,10,12,14,16,18,20,22,24,26,-1,28,30,32,-1,-1,34,36,38,40,42,44,-1,-1,-1,-1,46,-1,-1,-1,48,50,-1,-1,52,54,56,58,60,62,64,66,-1,-1,-1,-1,-1,-1,-1,-1,-1,-1,-1,-1,-1,-1,-1,-1,-1,-1,-1,-1,-1,-1],"split_conditions":[-4.6033973E-1,-6.942102E-1,-1.6557972E-1,-9.7863644E-2,-1.4703926E0,-1.538106E-1,1.2075591E0,-2.6441646E-1,-9.028647E-1,4.888182E-2,9.235163E-1,-2.3487125E-1,-2.822272E-2,-7.331806E-2,2.3190029E0,-1.6399185E-1,-1.6363803E-1,4.8212994E-2,-6.830768E-2,-1.182457E-1,1.2736863E0,2.146899E0,-1.6957296E-1,-1.6359785E-1,-4.000086E-2,-6.153017E-2,7.370637E-2,-6.457081E-2,6.3858114E-2,-1.1395384E0,-7.052874E-2,-6.3099556E-2,7.3081605E-2,-2.5510922E-1,-1.0848873E0,-7.5260095E-2,5.66643E-2,-6.94183E-1,-2.6433492E-1,1.0186019E0,-1.437307E0,-4.5646435E-1,-4.1394413E-1,-2.5598835E-2,-1.479955E-1,-5.7357784E-2,6.0900193E-2,6.333332E-2,2.8901506E-2,-7.354005E-2,7.082829E-2,-1.4188665E-2,-6.979961E-2,7.067805E-2,-5.453763E-2,-2.1884514E-2,5.1935684E-2,5.4393113E-2,-7.352853E-2,2.2456711E-2,-6.743076E-2,-6.026407E-2,2.1293359E-2,-6.49276E-2,3.5990402E-2,2.6766151E-2,-6.532764E-2],"split_indices":[52,89,58,47,79,60,109,76,98,55,67,42,76,0,5,8,7,0,0,17,130,73,18,7,47,0,0,0,0,125,0,0,0,83,91,0,0,89,76,2,140,54,51,36,22,0,0,0,0,0,0,0,0,0,0,0,0,0,0,0,0,0,0,0,0,0,0],"split_type":[0,0,0,0,0,0,0,0,0,0,0,0,0,0,0,0,0,0,0,0,0,0,0,0,0,0,0,0,0,0,0,0,0,0,0,0,0,0,0,0,0,0,0,0,0,0,0,0,0,0,0,0,0,0,0,0,0,0,0,0,0,0,0,0,0,0,0],"sum_hessian":[8.281244E3,4.30431E3,3.976934E3,2.8082817E3,1.4960281E3,2.1644973E3,1.8124368E3,2.799475E3,8.80683E0,7.54977E2,7.410511E2,1.7692605E3,3.952368E2,1.8034065E3,9.030231E0,4.20238E1,2.7574512E3,1.8144575E0,6.9923735E0,6.847175E2,7.0259514E1,4.5076474E2,2.9028635E2,3.0431445E2,1.464946E3,4.0702868E0,3.911665E2,6.9883933E0,2.0418377E0,3.362105E1,8.402746E0,1.4624059E0,2.7559888E3,6.4513696E2,3.9580517E1,6.8274055E1,1.9854609E0,4.4527417E2,5.490566E0,2.1575662E2,7.452972E1,1.0266285E2,2.016516E2,1.3270623E3,1.3788373E2,1.8983109E0,3.1722742E1,3.8263132E2,2.6250568E2,3.1939247E1,7.64127E0,1.0278305E1,4.3499588E2,4.0100975E0,1.4804682E0,9.202876E1,1.2372785E2,2.2947316E0,7.2234985E1,9.649725E0,9.301312E1,3.197001E1,1.6968158E2,1.3087893E3,1.8273031E1,5.8705673E1,7.917805E1],"tree_param":{"num_deleted":"0","num_feature":"157","num_nodes":"67","size_leaf_vector":"1"}},{"base_weights":[6.013584E-3,8.70245E-1,-9.3796116E-1,1.400801E0,-6.969361E-2,-1.32521E0,-3.209538E-1,1.4107225E0,-7.036684E-2,3.1322017E-1,-7.19166E-2,-8.4622777E-1,-1.3644929E0,6.322936E-1,-1.1060205E0,-2.5441602E-1,1.4237578E0,-1.3123857E0,6.0540736E-1,-1.3268052E0,-2.6261568E-1,-8.213262E-1,-1.3852897E0,1.0346565E0,-7.145023E-2,-6.450641E-1,-1.3126613E0,-1.140168E0,6.305661E-2,1.4287385E0,4.0168524E-1,-1.4157845E0,1.2632695E0,8.33185E-1,-9.465658E-1,1.2715807E-2,-1.4572917E0,-1.1525574E0,4.285719E-1,-7.0937455E-2,7.8903365E-1,-1.3051463E0,-1.4295542E0,2.5068393E-1,7.163249E-2,-8.319544E-1,8.581227E-2,-1.3823831E0,-7.822436E-1,4.9286168E-2,-7.664426E-2,1.8636169E-2,7.148236E-2,6.2421765E-2,-6.4672515E-2,-1.1900743E-2,-7.715885E-2,7.814231E-2,2.4591824E-2,4.9649972E-2,-3.2508235E-2,-2.6524132E-3,-6.675221E-2,-6.521436E-2,6.000788E-2,5.4321874E-2,-7.6732084E-2,-7.6464236E-2,3.6692232E-2,4.8778687E-2,-4.7622804E-2,8.9323685E-2,-6.3242815E-2,-6.574433E-2,7.264595E-2,-2.5832642E-2,-7.171526E-2,-4.9761996E-2,6.2039573E-2,1.3415878E-2,-6.3074306E-2,-6.989738E-2,1.1628283E-2,2.6896317E-2,-6.4540625E-2],"categories":[],"categories_nodes":[],"categories_segments":[],"categories_sizes":[],"default_left":[0,0,0,0,0,0,0,0,0,0,0,0,0,0,0,0,0,0,0,0,0,0,0,0,0,0,0,0,0,0,0,0,0,0,0,0,0,0,0,0,0,0,0,0,0,0,0,0,0,0,0,0,0,0,0,0,0,0,0,0,0,0,0,0,0,0,0,0,0,0,0,0,0,0,0,0,0,0,0,0,0,0,0,0,0],"id":10,"left_children":[1,3,5,7,9,11,13,15,-1,17,-1,19,21,23,25,27,29,31,33,35,37,39,41,43,-1,45,47,49,-1,51,53,55,57,59,61,63,65,67,69,-1,71,73,75,77,-1,79,-1,81,83,-1,-1,-1,-1,-1,-1,-1,-1,-1,-1,-1,-1,-1,-1,-1,-1,-1,-1,-1,-1,-1,-1,-1,-1,-1,-1,-1,-1,-1,-1,-1,-1,-1,-1,-1,-1],"loss_changes":[6.640935E3,2.119344E3,9.291865E2,7.766846E1,8.0449133E2,4.3816406E1,1.1244264E3,5.9126465E1,0E0,5.706015E2,0E0,5.1199783E1,2.379541E1,5.644586E2,7.762146E1,3.0806515E1,1.3102051E1,5.054843E1,3.6049863E2,1.7592957E1,5.2314636E1,8.179062E1,5.6708984E0,1.7702478E2,0E0,1.1482323E2,1.9918213E1,1.3477247E1,0E0,2.0322266E0,2.2311237E1,2.6113617E1,9.86516E-1,2.1112122E2,4.52959E1,1.7073317E1,1.9696136E1,2.7486805E1,3.730031E1,0E0,5.0060055E1,2.2524902E1,5.148926E0,2.3887695E2,0E0,1.1318732E2,0E0,1.290741E1,4.653241E1,0E0,0E0,0E0,0E0,0E0,0E0,0E0,0E0,0E0,0E0,0E0,0E0,0E0,0E0,0E0,0E0,0E0,0E0,0E0,0E0,0E0,0E0,0E0,0E0,0E0,0E0,0E0,0E0,0E0,0E0,0E0,0E0,0E0,0E0,0E0,0E0],"parents":[2147483647,0,0,1,1,2,2,3,3,4,4,5,5,6,6,7,7,9,9,11,11,12,12,13,13,14,14,15,15,16,16,17,17,18,18,19,19,20,20,21,21,22,22,23,23,25,25,26,26,27,27,29,29,30,30,31,31,32,32,33,33,34,34,35,35,36,36,37,37,38,38,40,40,41,41,42,42,43,43,45,45,47,47,48,48],"right_children":[2,4,6,8,10,12,14,16,-1,18,-1,20,22,24,26,28,30,32,34,36,38,40,42,44,-1,46,48,50,-1,52,54,56,58,60,62,64,66,68,70,-1,72,74,76,78,-1,80,-1,82,84,-1,-1,-1,-1,-1,-1,-1,-1,-1,-1,-1,-1,-1,-1,-1,-1,-1,-1,-1,-1,-1,-1,-1,-1,-1,-1,-1,-1,-1,-1,-1,-1,-1,-1,-1,-1],"split_conditions":[-4.3814233E-1,-6.942102E-1,-1.2855658E-1,-8.0147095E-2,-2.4024522E-2,-2.3486724E-1,-7.486643E-2,-1.6946268E-1,-7.036684E-2,-1.8268993E-1,-7.19166E-2,-1.623443E-1,-1.3851469E0,-1.6557972E-1,-1.488912E-1,8.158967E-1,-1.5063013E-1,5.649186E-1,-2.3200405E-1,-9.1113013E-1,-4.133295E-1,4.0139726E-1,-2.55679E-1,5.7855135E-1,-7.145023E-2,8.980034E-3,2.8661966E-1,-7.2106504E-1,6.305661E-2,-1.7624749E-1,-1.5625614E-1,-7.190732E-1,-1.7285904E-1,-1.2294771E-1,1.3099386E-1,1.0665254E-1,-9.257894E-1,2.8912953E-1,-1.7979024E-1,-7.0937455E-2,-1.6643387E-1,-2.021923E-1,-1.3994286E0,4.82977E-2,7.163249E-2,4.7202802E-1,8.581227E-2,1.4248171E0,-1.7288375E-1,4.9286168E-2,-7.664426E-2,1.8636169E-2,7.148236E-2,6.2421765E-2,-6.4672515E-2,-1.1900743E-2,-7.715885E-2,7.814231E-2,2.4591824E-2,4.9649972E-2,-3.2508235E-2,-2.6524132E-3,-6.675221E-2,-6.521436E-2,6.000788E-2,5.4321874E-2,-7.6732084E-2,-7.6464236E-2,3.6692232E-2,4.8778687E-2,-4.7622804E-2,8.9323685E-2,-6.3242815E-2,-6.574433E-2,7.264595E-2,-2.5832642E-2,-7.171526E-2,-4.9761996E-2,6.2039573E-2,1.3415878E-2,-6.3074306E-2,-6.989738E-2,1.1628283E-2,2.6896317E-2,-6.4540625E-2],"split_indices":[54,89,1,23,4,42,41,1,0,1,0,1,149,58,22,101,17,156,53,138,51,151,84,45,0,41,146,108,0,18,1,113,0,18,124,137,96,137,88,0,58,77,130,1,0,148,0,114,58,0,0,0,0,0,0,0,0,0,0,0,0,0,0,0,0,0,0,0,0,0,0,0,0,0,0,0,0,0,0,0,0,0,0,0,0],"split_type":[0,0,0,0,0,0,0,0,0,0,0,0,0,0,0,0,0,0,0,0,0,0,0,0,0,0,0,0,0,0,0,0,0,0,0,0,0,0,0,0,0,0,0,0,0,0,0,0,0,0,0,0,0,0,0,0,0,0,0,0,0,0,0,0,0,0,0,0,0,0,0,0,0,0,0,0,0,0,0,0,0,0,0,0,0],"sum_hessian":[8.1382695E3,4.248628E3,3.889642E3,2.7154053E3,1.5332225E3,2.3890613E3,1.5005808E3,2.7063408E3,9.064347E0,1.1986412E3,3.345813E2,1.827917E2,2.2062695E3,6.777882E2,8.227926E2,2.0877693E1,2.6854631E3,1.8208815E2,1.0165531E3,9.954641E1,8.3245285E1,8.285203E1,2.1234175E3,5.6750916E2,1.10279045E2,2.5595418E2,5.6683844E2,1.3332999E1,7.5446944E0,2.6720442E3,1.3419036E1,1.7549336E2,6.594793E0,8.868555E2,1.2969756E2,8.91644E0,9.0629974E1,3.6098717E1,4.714657E1,6.0519176E1,2.2332853E1,7.663629E2,1.3570546E3,1.9164133E2,3.7586783E2,2.3778214E2,1.8172045E1,4.995658E2,6.7272606E1,1.8435147E0,1.1489485E1,2.651103E0,2.669393E3,9.124638E0,4.2943983E0,1.7409304E1,1.5808406E2,4.011195E0,2.583598E0,8.0089825E2,8.595728E1,3.9646168E1,9.005139E1,4.18093E0,4.73551E0,2.2895648E0,8.834041E1,3.0247412E1,5.8513045E0,3.3980896E1,1.3165669E1,1.5120173E1,7.2126794E0,7.6418744E2,2.1755068E0,7.593842E0,1.3494607E3,8.4855865E1,1.0678546E2,6.686882E1,1.7091331E2,4.949301E2,4.6356835E0,1.8692337E1,4.8580273E1],"tree_param":{"num_deleted":"0","num_feature":"157","num_nodes":"85","size_leaf_vector":"1"}},{"base_weights":[-6.1073303E-3,7.995727E-1,-9.412637E-1,1.3425586E0,-1.7827563E-1,-5.469863E-1,-1.3962444E0,2.803136E-1,1.3790196E0,1.7761938E-1,-7.045472E-2,-1.0176758E0,1.3846248E0,3.109639E-2,-1.3993602E0,6.2203497E-1,-7.0935786E-2,-6.81396E-2,1.3897513E0,-1.289007E0,3.87244E-1,-1.3777169E0,-6.9319576E-1,-4.5696378E-1,7.0551716E-2,-7.016698E-2,-6.113528E-1,2.039631E-1,1.3823478E0,1.393339E0,-6.479221E-2,-7.197677E-2,3.2796025E-1,5.7608944E-1,-7.877532E-1,-1.4125521E0,-5.2355194E-1,-1.8670918E-1,-1.103297E0,4.3955304E-2,-5.7584513E-2,6.387952E-2,-6.1852492E-2,7.274001E-2,-1.0449913E-2,1.4340328E-2,7.557959E-2,6.982963E-2,-6.0148068E-2,7.481117E-2,-7.202249E-2,3.4589972E-2,-4.672187E-2,-2.2455065E-3,-7.1132585E-2,-7.119205E-2,-1.9085322E-2,7.224024E-2,-7.04077E-2,-4.715434E-2,9.532247E-3,5.682516E-2,-5.658071E-2],"categories":[],"categories_nodes":[],"categories_segments":[],"categories_sizes":[],"default_left":[0,0,0,0,0,0,0,0,0,0,0,0,0,0,0,0,0,0,0,0,0,0,0,0,0,0,0,0,0,0,0,0,0,0,0,0,0,0,0,0,0,0,0,0,0,0,0,0,0,0,0,0,0,0,0,0,0,0,0,0,0,0,0],"id":11,"left_children":[1,3,5,7,9,11,13,15,17,19,-1,21,23,-1,25,27,-1,-1,29,31,33,35,37,39,-1,-1,41,43,45,47,-1,-1,49,51,53,55,57,59,61,-1,-1,-1,-1,-1,-1,-1,-1,-1,-1,-1,-1,-1,-1,-1,-1,-1,-1,-1,-1,-1,-1,-1,-1],"loss_changes":[5.9256753E3,2.2434897E3,6.522019E2,1.0482861E2,6.6139185E2,1.7758796E3,1.1492676E1,5.3952656E1,7.916846E1,3.607168E2,0E0,1.82448E2,1.9263733E1,0E0,4.432373E0,2.4128792E1,0E0,0E0,2.7015137E1,3.6191986E1,2.28096E2,2.1372803E1,1.7172253E2,6.737337E0,0E0,0E0,1.3692831E1,2.6504885E1,3.399765E0,2.375586E1,0E0,0E0,2.9658943E1,1.5523065E2,6.7131935E1,7.758911E0,5.550544E1,1.0622791E2,3.0282837E1,0E0,0E0,0E0,0E0,0E0,0E0,0E0,0E0,0E0,0E0,0E0,0E0,0E0,0E0,0E0,0E0,0E0,0E0,0E0,0E0,0E0,0E0,0E0,0E0],"parents":[2147483647,0,0,1,1,2,2,3,3,4,4,5,5,6,6,7,7,8,8,9,9,11,11,12,12,14,14,15,15,18,18,19,19,20,20,21,21,22,22,23,23,26,26,27,27,28,28,29,29,32,32,33,33,34,34,35,35,36,36,37,37,38,38],"right_children":[2,4,6,8,10,12,14,16,18,20,-1,22,24,-1,26,28,-1,-1,30,32,34,36,38,40,-1,-1,42,44,46,48,-1,-1,50,52,54,56,58,60,62,-1,-1,-1,-1,-1,-1,-1,-1,-1,-1,-1,-1,-1,-1,-1,-1,-1,-1,-1,-1,-1,-1,-1,-1],"split_conditions":[-2.3927929E-1,-6.941726E-1,-1.6557972E-1,-2.6441646E-1,-2.4024522E-2,-1.538106E-1,-4.4867644E-1,-1.6306293E-1,-1.6363803E-1,-3.9151102E-2,-7.045472E-2,-5.6489408E-2,-2.822272E-2,3.109639E-2,8.021635E0,-1.6757356E-1,-7.0935786E-2,-6.81396E-2,-2.483376E-1,1.0186019E0,-1.5565069E-1,8.980034E-3,-1.4888842E-1,-2.3922583E-1,7.0551716E-2,-7.016698E-2,-1.488367E-1,-3.914642E-2,-7.6195234E-1,-1.6412506E-1,-6.479221E-2,-7.197677E-2,-4.672438E-1,6.881875E-1,-6.4234114E-1,-1.4472117E-1,-6.8963945E-1,-1.6360757E-1,-3.914642E-2,4.3955304E-2,-5.7584513E-2,6.387952E-2,-6.1852492E-2,7.274001E-2,-1.0449913E-2,1.4340328E-2,7.557959E-2,6.982963E-2,-6.0148068E-2,7.481117E-2,-7.202249E-2,3.4589972E-2,-4.672187E-2,-2.2455065E-3,-7.1132585E-2,-7.119205E-2,-1.9085322E-2,7.224024E-2,-7.04077E-2,-4.715434E-2,9.532247E-3,5.682516E-2,-5.658071E-2],"split_indices":[40,89,58,76,4,60,54,17,7,57,0,15,76,0,5,18,0,0,82,2,30,41,22,40,0,0,22,63,88,80,0,0,54,90,89,18,135,7,63,0,0,0,0,0,0,0,0,0,0,0,0,0,0,0,0,0,0,0,0,0,0,0,0],"split_type":[0,0,0,0,0,0,0,0,0,0,0,0,0,0,0,0,0,0,0,0,0,0,0,0,0,0,0,0,0,0,0,0,0,0,0,0,0,0,0,0,0,0,0,0,0,0,0,0,0,0,0,0,0,0,0,0,0,0,0,0,0,0,0],"sum_hessian":[7.8628613E3,4.223912E3,3.638949E3,2.7156023E3,1.5083099E3,1.9507069E3,1.6882422E3,9.040658E1,2.6251956E3,1.1706644E3,3.376455E2,1.5688798E3,3.8182706E2,2.2962515E0,1.6859459E3,7.5795845E1,1.4610733E1,9.744066E0,2.6154517E3,1.4575426E2,1.0249102E3,7.421493E2,8.2673047E2,5.1677017E0,3.7665933E2,1.6766978E3,9.24818E0,4.9723007E1,2.6072838E1,2.6124429E3,3.008716E0,1.3344151E2,1.2312748E1,8.834344E2,1.414758E2,7.124403E2,2.9709024E1,3.7054822E2,4.5618225E2,1.6770561E0,3.4906456E0,2.0419087E0,7.2062716E0,1.1715266E1,3.800774E1,3.0909965E0,2.2981842E1,2.6096348E3,2.8081918E0,7.507193E0,4.8055544E0,8.210797E2,6.2354702E1,6.568907E1,7.578672E1,7.043457E2,8.09459E0,9.015364E0,2.069366E1,1.228352E2,2.4771303E2,5.206807E0,4.5097546E2],"tree_param":{"num_deleted":"0","num_feature":"157","num_nodes":"63","size_leaf_vector":"1"}},{"base_weights":[1.4586442E-3,8.3412725E-1,-8.8540363E-1,1.3491458E0,-1.2506689E-1,-4.981028E-1,-6.8830304E-2,1.3565538E0,-8.0037147E-1,5.487226E-1,-8.316106E-1,-9.133246E-1,1.3530325E0,4.2224526E-1,1.3695251E0,4.5903184E-2,-6.506276E-2,7.4022865E-1,-1.3353657E0,-1.0609418E0,9.8802364E-1,-1.3369207E0,-5.551869E-1,-5.805808E-2,6.913632E-2,1.0642362E0,-6.776675E-2,1.370924E0,-4.4750724E-2,8.7457836E-1,-7.489944E-1,-7.11749E-2,5.305996E-2,-1.2521014E0,-3.8045394E-1,1.3687052E0,-6.829279E-2,-1.3851807E0,-3.292651E-1,-2.3335405E-2,-1.117542E0,-1.0886229E-2,6.6189185E-2,2.5519703E-2,6.8641864E-2,-6.8431996E-2,4.6816085E-2,1.2718554E-2,-7.518988E-2,-2.7518157E-2,-6.822827E-2,1.0194023E-2,-6.152007E-2,-5.7255775E-2,7.491819E-2,-2.4996389E-2,-6.974246E-2,7.4896954E-2,-6.953951E-2,3.5825707E-2,-2.2192428E-2,-4.128019E-2,-6.586356E-2],"categories":[],"categories_nodes":[],"categories_segments":[],"categories_sizes":[],"default_left":[0,0,0,0,0,0,0,0,0,0,0,0,0,0,0,0,0,0,0,0,0,0,0,0,0,0,0,0,0,0,0,0,0,0,0,0,0,0,0,0,0,0,0,0,0,0,0,0,0,0,0,0,0,0,0,0,0,0,0,0,0,0,0],"id":12,"left_children":[1,3,5,7,9,11,-1,13,15,17,19,21,23,25,27,-1,-1,29,31,33,35,37,39,-1,-1,41,-1,43,-1,45,47,-1,-1,49,51,53,-1,55,57,59,61,-1,-1,-1,-1,-1,-1,-1,-1,-1,-1,-1,-1,-1,-1,-1,-1,-1,-1,-1,-1,-1,-1],"loss_changes":[5.7230586E3,1.974751E3,7.1327E2,4.249951E1,6.6566266E2,1.6153035E3,0E0,3.083789E1,9.424519E0,2.592724E2,2.8584418E2,2.595531E2,3.0358093E1,4.3600025E1,9.324707E0,0E0,0E0,1.3079147E2,1.5536049E1,7.842743E1,7.078148E1,3.7734985E1,2.785583E2,0E0,0E0,9.504868E0,0E0,3.5063477E0,0E0,8.397812E1,4.1552948E1,0E0,0E0,3.6586853E1,6.7032104E1,2.3455101E1,0E0,5.7147217E0,7.4248474E1,1.4956842E2,2.5309753E1,0E0,0E0,0E0,0E0,0E0,0E0,0E0,0E0,0E0,0E0,0E0,0E0,0E0,0E0,0E0,0E0,0E0,0E0,0E0,0E0,0E0,0E0],"parents":[2147483647,0,0,1,1,2,2,3,3,4,4,5,5,7,7,8,8,9,9,10,10,11,11,12,12,13,13,14,14,17,17,18,18,19,19,20,20,21,21,22,22,25,25,27,27,29,29,30,30,33,33,34,34,35,35,37,37,38,38,39,39,40,40],"right_children":[2,4,6,8,10,12,-1,14,16,18,20,22,24,26,28,-1,-1,30,32,34,36,38,40,-1,-1,42,-1,44,-1,46,48,-1,-1,50,52,54,-1,56,58,60,62,-1,-1,-1,-1,-1,-1,-1,-1,-1,-1,-1,-1,-1,-1,-1,-1,-1,-1,-1,-1,-1,-1],"split_conditions":[-4.6033973E-1,-6.942102E-1,-1.6557972E-1,-9.7863644E-2,-1.4700272E0,-1.538106E-1,-6.8830304E-2,-2.6441646E-1,-1.7289537E-1,6.307672E-2,-1.5054897E-2,-5.6489408E-2,-2.822272E-2,-1.6304864E-1,-1.6412506E-1,4.5903184E-2,-6.506276E-2,-1.2399026E-1,1.2736863E0,8.870579E-1,-1.3973047E-1,8.980034E-3,-1.4888842E-1,-5.805808E-2,6.913632E-2,-1.0608846E-1,-6.776675E-2,-1.3973184E-1,-4.4750724E-2,-5.7306863E-2,-2.623679E-1,-7.11749E-2,5.305996E-2,-4.5046356E-1,-1.0553464E-1,4.1992503E-1,-6.829279E-2,-5.514259E-1,-6.8963945E-1,-5.4582566E-1,-5.629432E-2,-1.0886229E-2,6.6189185E-2,2.5519703E-2,6.8641864E-2,-6.8431996E-2,4.6816085E-2,1.2718554E-2,-7.518988E-2,-2.7518157E-2,-6.822827E-2,1.0194023E-2,-6.152007E-2,-5.7255775E-2,7.491819E-2,-2.4996389E-2,-6.974246E-2,7.4896954E-2,-6.953951E-2,3.5825707E-2,-2.2192428E-2,-4.128019E-2,-6.586356E-2],"split_indices":[52,89,58,47,80,60,0,76,58,56,72,15,76,10,80,0,0,8,130,19,21,41,22,0,0,121,0,21,0,15,82,0,0,155,114,94,0,106,135,11,15,0,0,0,0,0,0,0,0,0,0,0,0,0,0,0,0,0,0,0,0,0,0],"split_type":[0,0,0,0,0,0,0,0,0,0,0,0,0,0,0,0,0,0,0,0,0,0,0,0,0,0,0,0,0,0,0,0,0,0,0,0,0,0,0,0,0,0,0,0,0,0,0,0,0,0,0,0,0,0,0,0,0,0,0,0,0,0,0],"sum_hessian":[7.747966E3,3.996108E3,3.7518577E3,2.5997969E3,1.396311E3,2.0989233E3,1.6529342E3,2.5912356E3,8.561445E0,7.1483655E2,6.814745E2,1.7147911E3,3.8413226E2,3.5941803E1,2.5552937E3,1.744278E0,6.817167E0,6.494328E2,6.540373E1,6.055705E2,7.5904015E1,7.843494E2,9.3044165E2,4.0390663E0,3.800932E2,2.6700096E1,9.241706E0,2.5541106E3,1.1831502E0,5.9607117E2,5.3361633E1,6.3475487E1,1.9282471E0,4.7210803E2,1.3346245E2,6.569759E1,1.0206423E1,7.481437E2,3.620576E1,4.787252E2,4.517165E2,4.5226912E0,2.2177404E1,6.2601256E0,2.5478503E3,1.5400045E1,5.8067114E2,2.3193428E1,3.0168203E1,6.602524E1,4.060828E2,7.953955E1,5.39229E1,2.8382285E0,6.2859364E1,8.652271E0,7.394914E2,1.3153502E1,2.3052258E1,1.7323398E2,3.054912E2,1.8558539E2,2.6613107E2],"tree_param":{"num_deleted":"0","num_feature":"157","num_nodes":"63","size_leaf_vector":"1"}},{"base_weights":[-3.2428217E-3,8.351891E-1,-8.542679E-1,1.3276254E0,-6.630151E-2,-4.8401657E-1,-1.3450617E0,1.8565969E-1,1.3430041E0,3.0485195E-1,-6.766236E-2,-8.3612925E-1,6.74684E-2,1.8925851E-2,-1.3479023E0,1.2477821E0,-8.395944E-1,1.3462965E0,-5.4742165E-2,-1.236245E0,4.8597407E-1,-1.3046057E0,-4.6184465E-1,-6.7601494E-2,-4.4034913E-1,2.0584976E-2,6.698965E-2,-7.173058E-2,4.7945853E-2,1.3477427E0,-4.378326E-2,5.7531454E-2,-1.338224E0,7.841495E-1,-3.74706E-1,-1.330362E0,3.4141064E-1,1.809076E-1,-9.6348345E-1,-5.79756E-2,6.4035155E-2,2.5811533E-2,6.744389E-2,-6.917272E-2,2.120105E-2,4.37962E-2,-2.1285398E-2,8.674393E-3,-7.002693E-2,-6.7287266E-2,-9.288479E-3,8.4218845E-2,-5.9321642E-2,2.548239E-2,-4.4572324E-2,-5.5186E-2,-9.877503E-3],"categories":[],"categories_nodes":[],"categories_segments":[],"categories_sizes":[],"default_left":[0,0,0,0,0,0,0,0,0,0,0,0,0,0,0,0,0,0,0,0,0,0,0,0,0,0,0,0,0,0,0,0,0,0,0,0,0,0,0,0,0,0,0,0,0,0,0,0,0,0,0,0,0,0,0,0,0],"id":13,"left_children":[1,3,5,7,9,11,13,15,17,19,-1,21,-1,-1,23,25,27,29,-1,31,33,35,37,-1,39,-1,-1,-1,-1,41,-1,-1,43,45,47,49,51,53,55,-1,-1,-1,-1,-1,-1,-1,-1,-1,-1,-1,-1,-1,-1,-1,-1,-1,-1],"loss_changes":[5.347985E3,1.6761367E3,6.7527026E2,4.2632324E1,6.379551E2,1.3708384E3,8.338623E0,3.7643105E1,2.0811523E1,2.899942E2,0E0,3.1160046E2,0E0,0E0,5.385254E0,7.491665E-1,2.0314816E1,8.911621E0,0E0,2.8149063E1,2.3856874E2,3.3955322E1,3.1980173E2,0E0,1.2266734E1,0E0,0E0,0E0,0E0,1.5737305E0,0E0,0E0,8.979858E0,7.6974304E1,1.3496736E2,1.3453247E1,2.8611246E1,1.5393637E2,5.9602966E1,0E0,0E0,0E0,0E0,0E0,0E0,0E0,0E0,0E0,0E0,0E0,0E0,0E0,0E0,0E0,0E0,0E0,0E0],"parents":[2147483647,0,0,1,1,2,2,3,3,4,4,5,5,6,6,7,7,8,8,9,9,11,11,14,14,15,15,16,16,17,17,19,19,20,20,21,21,22,22,24,24,29,29,32,32,33,33,34,34,35,35,36,36,37,37,38,38],"right_children":[2,4,6,8,10,12,14,16,18,20,-1,22,-1,-1,24,26,28,30,-1,32,34,36,38,-1,40,-1,-1,-1,-1,42,-1,-1,44,46,48,50,52,54,56,-1,-1,-1,-1,-1,-1,-1,-1,-1,-1,-1,-1,-1,-1,-1,-1,-1,-1],"split_conditions":[-4.753934E-1,-6.942102E-1,-1.6557972E-1,-2.6441646E-1,-2.4024522E-2,-1.6561584E-1,-4.716787E-1,-1.7283475E-1,-4.693209E-2,-3.9151106E-2,-6.766236E-2,-5.6489408E-2,6.74684E-2,1.8925851E-2,1.2075591E0,-1.306049E-1,8.0705065E-1,-1.6906255E-1,-5.4742165E-2,-4.6753043E-1,-1.6613157E-1,-1.4712761E-2,-2.3888732E-1,-6.7601494E-2,2.1291556E0,2.0584976E-2,6.698965E-2,-7.173058E-2,4.7945853E-2,-1.3973184E-1,-4.378326E-2,5.7531454E-2,-1.397312E-1,1.0284747E0,-1.4703926E0,4.286831E0,3.1355792E-1,-3.4777093E-1,-4.000086E-2,-5.79756E-2,6.4035155E-2,2.5811533E-2,6.744389E-2,-6.917272E-2,2.120105E-2,4.37962E-2,-2.1285398E-2,8.674393E-3,-7.002693E-2,-6.7287266E-2,-9.288479E-3,8.4218845E-2,-5.9321642E-2,2.548239E-2,-4.4572324E-2,-5.5186E-2,-9.877503E-3],"split_indices":[52,89,58,76,4,58,52,17,3,57,0,15,0,0,109,105,121,79,0,54,17,72,40,0,3,0,0,0,0,21,0,0,21,89,79,37,88,89,47,0,0,0,0,0,0,0,0,0,0,0,0,0,0,0,0,0,0],"split_type":[0,0,0,0,0,0,0,0,0,0,0,0,0,0,0,0,0,0,0,0,0,0,0,0,0,0,0,0,0,0,0,0,0,0,0,0,0,0,0,0,0,0,0,0,0,0,0,0,0,0,0,0,0,0,0,0,0],"sum_hessian":[7.493143E3,3.7745078E3,3.7186353E3,2.4407715E3,1.3337362E3,2.1207458E3,1.5978895E3,3.2606342E1,2.408165E3,1.0357814E3,2.979549E2,1.7795217E3,3.4122406E2,2.4115365E0,1.5954779E3,1.5908609E1,1.6697733E1,2.4053643E3,2.80085E0,1.0831827E2,9.274631E2,7.892122E2,9.903096E2,1.587767E3,7.7109933E0,2.1199107E0,1.3788698E1,1.269881E1,3.998922E0,2.404193E3,1.1712261E0,4.016924E0,1.0430134E2,6.888913E2,2.3857178E2,7.77242E2,1.19702215E1,4.3437814E2,5.5593146E2,5.6685834E0,2.0424101E0,3.8989165E0,2.4002942E3,1.0190087E2,2.4004726E0,6.4057605E2,4.831526E1,1.5602472E2,8.254706E1,7.6676086E2,1.0481109E1,6.31602E0,5.6542015E0,3.3286118E2,1.0151697E2,4.695242E2,8.640725E1],"tree_param":{"num_deleted":"0","num_feature":"157","num_nodes":"57","size_leaf_vector":"1"}},{"base_weights":[-1.3948181E-3,8.229718E-1,-8.3922774E-1,1.3047701E0,-3.964716E-2,-4.7339943E-1,-1.325029E0,3.1161284E-1,1.3200707E0,3.0328834E-1,-6.6481315E-2,-8.2322043E-1,1.3020616E0,-6.645152E-2,-6.0756004E-1,9.121715E-1,-6.482999E-2,-5.878681E-2,1.3232754E0,4.813052E-1,-1.2755756E0,-1.2720453E0,-4.6046644E-1,-5.8582574E-2,6.674087E-2,6.2061023E-2,-5.9943795E-2,-5.8799397E-2,1.0924855E0,1.3247066E0,-4.2260934E-2,6.441453E-1,-8.8662714E-1,-1.337375E0,4.02294E-2,-5.961706E-2,-1.3045999E0,4.691582E-2,-1.0700727E0,-3.2893983E-3,6.393745E-2,3.0026559E-2,6.62766E-2,1.3651482E-2,5.3629972E-2,-1.6312886E-2,-7.398845E-2,-6.940778E-2,1.6958443E-2,5.5805385E-2,-6.321499E-2,-9.052212E-3,-6.650794E-2,-4.9525034E-2,1.4042667E-2,-3.8490653E-2,-6.474989E-2],"categories":[],"categories_nodes":[],"categories_segments":[],"categories_sizes":[],"default_left":[0,0,0,0,0,0,0,0,0,0,0,0,0,0,0,0,0,0,0,0,0,0,0,0,0,0,0,0,0,0,0,0,0,0,0,0,0,0,0,0,0,0,0,0,0,0,0,0,0,0,0,0,0,0,0,0,0],"id":14,"left_children":[1,3,5,7,9,11,13,15,17,19,-1,21,23,-1,25,27,-1,-1,29,31,33,35,37,-1,-1,-1,-1,-1,39,41,-1,43,45,47,-1,49,51,53,55,-1,-1,-1,-1,-1,-1,-1,-1,-1,-1,-1,-1,-1,-1,-1,-1,-1,-1],"loss_changes":[5.0584517E3,1.5343098E3,6.4489746E2,3.5582764E1,5.860813E2,1.2889294E3,3.670166E0,3.715693E1,2.021167E1,2.9480322E2,0E0,2.8154333E2,2.9250671E1,0E0,1.2958679E1,1.1717018E1,0E0,0E0,8.350342E0,2.1026433E2,1.4745239E1,3.0470825E1,2.9694293E2,0E0,0E0,0E0,0E0,0E0,5.698387E0,5.957031E-1,0E0,1.3355917E2,3.294159E1,9.294189E0,0E0,3.156013E1,2.1402588E1,1.27646675E2,2.8452606E1,0E0,0E0,0E0,0E0,0E0,0E0,0E0,0E0,0E0,0E0,0E0,0E0,0E0,0E0,0E0,0E0,0E0,0E0],"parents":[2147483647,0,0,1,1,2,2,3,3,4,4,5,5,6,6,7,7,8,8,9,9,11,11,12,12,14,14,15,15,18,18,19,19,20,20,21,21,22,22,28,28,29,29,31,31,32,32,33,33,35,35,36,36,37,37,38,38],"right_children":[2,4,6,8,10,12,14,16,18,20,-1,22,24,-1,26,28,-1,-1,30,32,34,36,38,-1,-1,-1,-1,-1,40,42,-1,44,46,48,-1,50,52,54,56,-1,-1,-1,-1,-1,-1,-1,-1,-1,-1,-1,-1,-1,-1,-1,-1,-1,-1],"split_conditions":[-4.753934E-1,-6.942102E-1,-1.6557972E-1,-2.6441646E-1,-2.2710646E-2,-1.538106E-1,8.021635E0,-1.6399185E-1,-1.6363803E-1,-2.3188606E-1,-6.6481315E-2,-5.6489408E-2,-2.822272E-2,-6.645152E-2,7.6068935E0,-9.762872E-1,-6.482999E-2,-5.878681E-2,-1.6906255E-1,-1.4890002E-1,-4.5979863E-1,-4.585438E-1,-1.4888926E-1,-5.8582574E-2,6.674087E-2,6.2061023E-2,-5.9943795E-2,-5.8799397E-2,-2.8518954E-1,-1.6093284E-1,-4.2260934E-2,1.0186019E0,-6.490144E-1,-1.3961697E-1,4.02294E-2,-6.6510713E-1,-1.2907145E0,-1.692969E-1,-5.629432E-2,-3.2893983E-3,6.393745E-2,3.0026559E-2,6.62766E-2,1.3651482E-2,5.3629972E-2,-1.6312886E-2,-7.398845E-2,-6.940778E-2,1.6958443E-2,5.5805385E-2,-6.321499E-2,-9.052212E-3,-6.650794E-2,-4.9525034E-2,1.4042667E-2,-3.8490653E-2,-6.474989E-2],"split_indices":[52,89,58,76,13,60,5,8,7,53,0,15,76,0,3,125,0,0,79,22,54,106,22,0,0,0,0,0,121,60,0,2,89,74,0,125,137,8,15,0,0,0,0,0,0,0,0,0,0,0,0,0,0,0,0,0,0],"split_type":[0,0,0,0,0,0,0,0,0,0,0,0,0,0,0,0,0,0,0,0,0,0,0,0,0,0,0,0,0,0,0,0,0,0,0,0,0,0,0,0,0,0,0,0,0,0,0,0,0,0,0,0,0,0,0,0,0],"sum_hessian":[7.3218555E3,3.6905955E3,3.6312598E3,2.3676694E3,1.3229263E3,2.0725322E3,1.5587274E3,3.6247093E1,2.331422E3,1.045697E3,2.7722925E2,1.7318419E3,3.4069037E2,1.5492349E3,9.492563E0,2.6706738E1,9.540356E0,2.5206563E0,2.3289016E3,9.403659E2,1.0533108E2,7.7296655E2,9.5887537E2,3.9979308E0,3.366924E2,2.0340176E0,7.4585457E0,1.6839193E0,2.5022818E1,2.3277544E3,1.1470683E0,8.4080475E2,9.956114E1,1.0263886E2,2.6922126E0,2.028605E1,7.526805E2,5.2381836E2,4.35057E2,3.5561013E0,2.1466717E1,3.479452E0,2.3242751E3,4.5142746E2,3.8937732E2,5.1991936E1,4.756921E1,9.978841E1,2.8504593E0,1.0303627E1,9.982424E0,1.6921171E1,7.3575934E2,9.579095E1,4.280274E2,1.8821944E2,2.4683755E2],"tree_param":{"num_deleted":"0","num_feature":"157","num_nodes":"57","size_leaf_vector":"1"}},{"base_weights":[-1.9864441E-4,8.0326724E-1,-8.1267214E-1,1.2834117E0,-5.4117206E-2,-1.1750278E0,-2.4912374E-1,-4.0436724E-1,1.2954065E0,2.8888223E-1,-6.54042E-2,-1.335453E-1,-1.2110692E0,5.841184E-1,-9.96842E-1,-7.413973E-2,4.5931417E-1,1.3010262E0,-6.324342E-2,-1.1631343E0,5.7809395E-1,9.2805237E-1,-1.0413461E0,-7.711222E-1,-1.2522045E0,9.187032E-1,-6.516918E-2,-6.8016785E-1,-1.3045505E0,9.9243426E-1,-5.430259E-2,1.302383E0,-3.9177362E-2,5.4624673E-2,-5.8918722E-2,-1.401492E0,1.4021628E0,7.3653036E-1,-1.0027992E0,-6.315297E-2,1.2243583E0,-7.662773E-2,1.640385E-1,-1.211912E0,-2.9875275E-1,-1.2899722E0,-1.0590688E0,1.0281116E0,-6.878316E-2,-8.9169174E-1,2.7208385E-1,-6.627794E-2,-9.447891E-1,1.7221127E-2,5.8250036E-2,1.1356876E-2,6.517153E-2,-1.4905288E-2,-7.703226E-2,7.786317E-2,2.2365987E-2,4.7598492E-2,-1.7936734E-2,-6.712841E-2,6.826952E-3,3.870269E-3,6.6246845E-2,-6.2404152E-2,5.7125397E-2,-4.8928293E-3,-7.164893E-2,-6.6205814E-2,7.6819435E-3,-3.2616306E-2,-6.512272E-2,-5.9711616E-2,2.2937616E-2,5.6459725E-2,-7.085468E-2,-4.8606124E-2,7.43584E-2,-6.537892E-2,5.1581632E-2,6.86797E-2,-6.341495E-2],"categories":[],"categories_nodes":[],"categories_segments":[],"categories_sizes":[],"default_left":[0,0,0,0,0,0,0,0,0,0,0,0,0,0,0,0,0,0,0,0,0,0,0,0,0,0,0,0,0,0,0,0,0,0,0,0,0,0,0,0,0,0,0,0,0,0,0,0,0,0,0,0,0,0,0,0,0,0,0,0,0,0,0,0,0,0,0,0,0,0,0,0,0,0,0,0,0,0,0,0,0,0,0,0,0],"id":15,"left_children":[1,3,5,7,9,11,13,15,17,19,-1,21,23,25,27,-1,29,31,33,35,37,39,41,43,45,47,-1,49,51,53,-1,55,-1,-1,-1,57,59,61,63,-1,65,-1,67,69,71,73,75,77,-1,79,81,-1,83,-1,-1,-1,-1,-1,-1,-1,-1,-1,-1,-1,-1,-1,-1,-1,-1,-1,-1,-1,-1,-1,-1,-1,-1,-1,-1,-1,-1,-1,-1,-1,-1],"loss_changes":[4.6346157E3,1.4695664E3,7.205586E2,4.6848145E1,5.5193994E2,8.047705E1,8.6208466E2,1.6430761E1,1.7432373E1,4.238726E2,0E0,7.129887E1,3.6610107E1,4.1460306E2,7.0163635E1,0E0,9.442589E0,7.4208984E0,1.4579968E1,1.0451752E2,2.1139606E2,2.3730455E1,2.3823284E1,3.7145508E1,1.2471924E1,1.4114136E2,0E0,7.304326E1,1.5343628E0,5.013299E-1,0E0,2.2524414E0,0E0,0E0,0E0,2.3179535E1,1.4891205E0,1.8085596E2,3.0004356E1,0E0,3.4282036E0,0E0,1.86002E1,2.2728546E1,4.1154152E1,1.17438965E1,6.535513E1,1.3306104E2,0E0,5.8074936E1,8.108785E1,0E0,1.961129E1,0E0,0E0,0E0,0E0,0E0,0E0,0E0,0E0,0E0,0E0,0E0,0E0,0E0,0E0,0E0,0E0,0E0,0E0,0E0,0E0,0E0,0E0,0E0,0E0,0E0,0E0,0E0,0E0,0E0,0E0,0E0,0E0],"parents":[2147483647,0,0,1,1,2,2,3,3,4,4,5,5,6,6,7,7,8,8,9,9,11,11,12,12,13,13,14,14,16,16,17,17,18,18,19,19,20,20,21,21,22,22,23,23,24,24,25,25,27,27,28,28,29,29,31,31,35,35,36,36,37,37,38,38,40,40,42,42,43,43,44,44,45,45,46,46,47,47,49,49,50,50,52,52],"right_children":[2,4,6,8,10,12,14,16,18,20,-1,22,24,26,28,-1,30,32,34,36,38,40,42,44,46,48,-1,50,52,54,-1,56,-1,-1,-1,58,60,62,64,-1,66,-1,68,70,72,74,76,78,-1,80,82,-1,84,-1,-1,-1,-1,-1,-1,-1,-1,-1,-1,-1,-1,-1,-1,-1,-1,-1,-1,-1,-1,-1,-1,-1,-1,-1,-1,-1,-1,-1,-1,-1,-1],"split_conditions":[-4.753934E-1,-6.942102E-1,-1.2855658E-1,-1.6946268E-1,-2.4024522E-2,-4.6033973E-1,-7.486643E-2,8.161834E-2,-1.4893016E-1,-1.7964585E-1,-6.54042E-2,-6.94183E-1,-2.3486724E-1,-1.6557972E-1,1.8211908E0,-7.413973E-2,-1.3273817E-2,-8.0147095E-2,-1.4700272E0,5.649186E-1,-2.3200405E-1,-1.6804677E-1,3.957786E-1,-1.623443E-1,1.0186019E0,1.0103104E0,-6.516918E-2,2.438112E0,1.0009224E0,1.8759212E-1,-5.430259E-2,-1.6093293E-1,-3.9177362E-2,5.4624673E-2,-5.8918722E-2,4.2252594E-1,-1.33958785E-2,-1.5663475E-1,1.0186019E0,-6.315297E-2,1.814557E-1,-7.662773E-2,-4.159729E-1,-4.5698857E-1,-1.3973182E-1,-1.1198741E0,2.8986387E0,-1.1001337E-1,-6.878316E-2,-2.5598835E-2,1.0186019E0,-6.627794E-2,1.9537807E0,1.7221127E-2,5.8250036E-2,1.1356876E-2,6.517153E-2,-1.4905288E-2,-7.703226E-2,7.786317E-2,2.2365987E-2,4.7598492E-2,-1.7936734E-2,-6.712841E-2,6.826952E-3,3.870269E-3,6.6246845E-2,-6.2404152E-2,5.7125397E-2,-4.8928293E-3,-7.164893E-2,-6.6205814E-2,7.6819435E-3,-3.2616306E-2,-6.512272E-2,-5.9711616E-2,2.2937616E-2,5.6459725E-2,-7.085468E-2,-4.8606124E-2,7.43584E-2,-6.537892E-2,5.1581632E-2,6.86797E-2,-6.341495E-2],"split_indices":[52,89,1,1,4,52,41,135,17,1,0,89,42,58,52,0,132,23,80,156,53,1,121,1,2,52,0,53,98,94,0,60,0,0,0,133,137,17,2,0,95,0,152,104,21,120,53,0,0,36,2,0,52,0,0,0,0,0,0,0,0,0,0,0,0,0,0,0,0,0,0,0,0,0,0,0,0,0,0,0,0,0,0,0,0],"split_type":[0,0,0,0,0,0,0,0,0,0,0,0,0,0,0,0,0,0,0,0,0,0,0,0,0,0,0,0,0,0,0,0,0,0,0,0,0,0,0,0,0,0,0,0,0,0,0,0,0,0,0,0,0,0,0,0,0,0,0,0,0,0,0,0,0,0,0,0,0,0,0,0,0,0,0,0,0,0,0,0,0,0,0,0,0],"sum_hessian":[7.097652E3,3.5686135E3,3.529038E3,2.2872385E3,1.2813749E3,2.1472769E3,1.3817614E3,1.5909382E1,2.271329E3,1.00676306E3,2.7461185E2,7.198022E1,2.0752966E3,6.5361017E2,7.281512E2,6.7563286E0,9.153053E0,2.2620151E3,9.313953E0,1.667178E2,8.400453E2,3.316924E1,3.8810978E1,1.7913808E2,1.8961586E3,5.5563055E2,9.797963E1,3.6042993E2,3.6772125E2,7.071372E0,2.0816808E0,2.260919E3,1.0962679E0,4.5836735E0,4.7302804E0,1.5295909E2,1.3758702E1,7.640106E2,7.60347E1,3.5625262E0,2.9606714E1,2.7381336E1,1.1429643E1,9.1856705E1,8.728137E1,1.581263E3,3.1489563E2,5.308677E2,2.4762878E1,2.9497147E2,6.545847E1,3.4489636E2,2.2824911E1,2.1171298E0,4.954242E0,2.4130733E0,2.2585059E3,1.748195E1,1.3547714E2,1.129335E1,2.4653528E0,6.385401E2,1.254705E2,5.84312E1,1.7603498E1,2.529624E0,2.707709E1,4.5653744E0,6.8642683E0,1.5448298E1,7.640841E1,2.6129927E1,6.115144E1,3.1382132E1,1.5498807E3,2.8934256E2,2.555305E1,5.1031006E2,2.0557625E1,2.8589645E2,9.074987E0,2.1020285E1,4.443819E1,2.3975244E0,2.0427385E1],"tree_param":{"num_deleted":"0","num_feature":"157","num_nodes":"85","size_leaf_vector":"1"}},{"base_weights":[1.8657262E-3,7.628816E-1,-8.12851E-1,1.2581191E0,-9.9868335E-2,-4.543855E-1,-1.2840563E0,-1.9255048E-2,1.2761995E0,5.1380575E-1,-7.627159E-1,-8.049399E-1,1.2642151E0,-6.441974E-2,-4.559414E-1,1.0122665E0,-1.0956553E0,1.2824376E0,-5.943903E-2,-9.966395E-1,7.443401E-1,-9.6923786E-1,8.579674E-1,-1.2394022E0,-4.5991805E-1,-5.3123772E-2,6.470548E-2,-5.5880357E-2,6.1656713E-2,1.2078984E0,-4.6294197E-2,-7.078549E-2,4.8228752E-2,8.390718E-1,6.426023E-2,6.358619E-1,-1.1747262E0,1.1065226E0,2.4618883E-1,-1.209088E0,-2.2388776E-1,1.2513338E0,-6.38468E-2,-1.2673383E0,1.8801494E-1,3.4348908E-1,-7.721831E-1,6.51842E-2,1.7136725E-2,-8.325974E-2,5.816386E-2,5.4381914E-2,-4.935048E-2,-6.41613E-2,4.4076513E-2,-3.6087327E-2,5.70768E-2,-1.2735856E-2,4.0887736E-2,-2.2791693E-2,-6.546848E-2,4.6476077E-2,-3.0865798E-2,6.652618E-2,-4.7905397E-2,-1.667838E-2,-6.466673E-2,8.261534E-2,-5.905829E-2,5.280424E-2,-7.9575805E-3,-5.3200778E-2,-1.3570452E-2],"categories":[],"categories_nodes":[],"categories_segments":[],"categories_sizes":[],"default_left":[0,0,0,0,0,0,0,0,0,0,0,0,0,0,0,0,0,0,0,0,0,0,0,0,0,0,0,0,0,0,0,0,0,0,0,0,0,0,0,0,0,0,0,0,0,0,0,0,0,0,0,0,0,0,0,0,0,0,0,0,0,0,0,0,0,0,0,0,0,0,0,0,0],"id":16,"left_children":[1,3,5,7,9,11,13,15,17,19,21,23,25,-1,27,29,31,33,-1,35,37,39,41,43,45,-1,-1,-1,-1,47,-1,-1,-1,49,-1,51,53,55,57,59,61,63,-1,65,67,69,71,-1,-1,-1,-1,-1,-1,-1,-1,-1,-1,-1,-1,-1,-1,-1,-1,-1,-1,-1,-1,-1,-1,-1,-1,-1,-1],"loss_changes":[4.297048E3,1.5311858E3,5.647942E2,5.260498E1,5.323418E2,1.1472411E3,4.606201E0,3.748338E1,3.6043457E1,2.3740327E2,2.113894E2,2.3639673E2,2.3821777E1,0E0,1.152817E1,7.658369E0,1.2252958E1,1.6691895E0,0E0,2.7035843E1,1.0621741E2,9.956439E1,6.1755314E1,2.811731E1,2.217152E2,0E0,0E0,0E0,0E0,8.8747406E-1,0E0,0E0,0E0,1.5553771E1,0E0,8.0700865E0,1.9399323E1,2.2682648E1,7.1714645E1,3.1300049E1,6.282534E1,1.1946426E1,0E0,1.6217163E1,3.0603401E1,8.8908E1,9.265094E1,0E0,0E0,0E0,0E0,0E0,0E0,0E0,0E0,0E0,0E0,0E0,0E0,0E0,0E0,0E0,0E0,0E0,0E0,0E0,0E0,0E0,0E0,0E0,0E0,0E0,0E0],"parents":[2147483647,0,0,1,1,2,2,3,3,4,4,5,5,6,6,7,7,8,8,9,9,10,10,11,11,12,12,14,14,15,15,16,16,17,17,19,19,20,20,21,21,22,22,23,23,24,24,29,29,33,33,35,35,36,36,37,37,38,38,39,39,40,40,41,41,43,43,44,44,45,45,46,46],"right_children":[2,4,6,8,10,12,14,16,18,20,22,24,26,-1,28,30,32,34,-1,36,38,40,42,44,46,-1,-1,-1,-1,48,-1,-1,-1,50,-1,52,54,56,58,60,62,64,-1,66,68,70,72,-1,-1,-1,-1,-1,-1,-1,-1,-1,-1,-1,-1,-1,-1,-1,-1,-1,-1,-1,-1,-1,-1,-1,-1,-1,-1],"split_conditions":[-4.6033973E-1,-6.942102E-1,-1.6557972E-1,-2.6441646E-1,-1.4700272E0,-1.538106E-1,1.2075591E0,-1.7283475E-1,-2.913977E-2,-4.14017E-1,-1.5054897E-2,-5.6489408E-2,-2.822272E-2,-6.441974E-2,1.5735946E0,-4.6647578E-1,1.521758E-1,-1.7622527E-1,-5.943903E-2,-2.5925013E-1,-2.551191E-1,8.870579E-1,-1.5566024E-1,-1.4712761E-2,-2.391902E-1,-5.3123772E-2,6.470548E-2,-5.5880357E-2,6.1656713E-2,6.1945033E-1,-4.6294197E-2,-7.078549E-2,4.8228752E-2,1.06770635E-1,6.426023E-2,-8.0192184E-1,-2.9617915E-2,-1.6092592E-1,1.0186019E0,-1.7107083E-1,-5.520033E-1,6.7628074E-1,-6.38468E-2,-4.585438E-1,3.1355792E-1,-3.914631E-2,1.0186019E0,6.51842E-2,1.7136725E-2,-8.325974E-2,5.816386E-2,5.4381914E-2,-4.935048E-2,-6.41613E-2,4.4076513E-2,-3.6087327E-2,5.70768E-2,-1.2735856E-2,4.0887736E-2,-2.2791693E-2,-6.546848E-2,4.6476077E-2,-3.0865798E-2,6.652618E-2,-4.7905397E-2,-1.667838E-2,-6.466673E-2,8.261534E-2,-5.905829E-2,5.280424E-2,-7.9575805E-3,-5.3200778E-2,-1.3570452E-2],"split_indices":[52,89,58,76,80,60,109,17,5,51,72,15,76,0,2,54,102,18,0,84,83,19,30,72,40,0,0,0,0,112,0,0,0,150,0,102,70,66,2,16,113,88,0,106,88,63,2,0,0,0,0,0,0,0,0,0,0,0,0,0,0,0,0,0,0,0,0,0,0,0,0,0,0],"split_type":[0,0,0,0,0,0,0,0,0,0,0,0,0,0,0,0,0,0,0,0,0,0,0,0,0,0,0,0,0,0,0,0,0,0,0,0,0,0,0,0,0,0,0,0,0,0,0,0,0,0,0,0,0,0,0,0,0,0,0,0,0,0,0,0,0,0,0,0,0,0,0,0,0],"sum_hessian":[6.9285835E3,3.5823875E3,3.346196E3,2.2756538E3,1.3067338E3,1.9015624E3,1.4446337E3,3.175988E1,2.2438938E3,6.786523E2,6.280815E2,1.5798429E3,3.2171948E2,1.4365518E3,8.081943E0,1.6248457E1,1.5511423E1,2.2387083E3,5.1857176E0,8.942471E1,5.892276E2,5.5744836E2,7.063311E1,6.98136E2,8.817069E2,3.6430125E0,3.1807648E2,6.050211E0,2.0317316E0,1.5100981E1,1.1474758E0,1.3696523E1,1.8149005E0,1.5771459E1,2.2229368E3,8.542847E0,8.088187E1,3.4046802E2,2.4875957E2,4.212651E2,1.3618326E2,5.9992977E1,1.0640133E1,6.8484503E2,1.3291005E1,2.4675261E2,6.349543E2,1.3139405E1,1.9615756E0,1.3336533E0,1.4437805E1,6.9405394E0,1.6023073E0,7.718508E1,3.6967826E0,6.0292716E0,3.3443875E2,1.3287E2,1.1588957E2,5.014588E1,3.7111923E2,3.429076E1,1.0189249E2,5.8301174E1,1.6918011E0,1.8924364E1,6.6592065E2,6.3225117E0,6.968494E0,1.0160531E2,1.4514731E2,4.0045776E2,2.3449652E2],"tree_param":{"num_deleted":"0","num_feature":"157","num_nodes":"73","size_leaf_vector":"1"}},{"base_weights":[-9.480726E-3,7.686613E-1,-7.7480745E-1,1.2662226E0,2.536742E-2,-1.1170809E0,-2.5740436E-1,1.2678174E0,-3.7951704E-2,6.439792E-1,-7.1606785E-1,-5.3258693E-1,-1.1864836E0,3.926444E-1,-1.1520779E0,1.1513379E-2,6.343294E-2,-9.493275E-1,9.5538545E-1,-1.2205784E0,-3.9987448E-3,-8.619904E-1,4.9008837E-1,-8.21633E-1,-1.2167863E0,9.8829895E-1,-5.8708E-1,-1.8046466E-1,-1.22904E0,-1.2501315E0,1.0413885E0,1.0744503E0,-1.1872419E0,-1.2478021E0,5.5289775E-1,4.1231495E-1,-1.2094209E0,3.0011454E-1,-1.0278E0,1.0691775E0,-6.260569E-2,-1.0619148E0,7.3659706E-1,-1.244433E0,-9.909535E-1,1.0907329E0,-6.3338764E-2,-8.537829E-1,1.1057357E0,2.0923789E0,-1.0119183E0,-1.269209E0,-2.0382108E-1,-6.78065E-2,3.0292729E-2,6.27966E-2,-4.6734273E-2,6.380454E-2,2.3382805E-4,-6.764059E-2,4.9903415E-2,-3.2182153E-2,-6.503301E-2,-4.6327297E-2,5.9444685E-2,3.0767659E-2,-7.5411394E-2,-6.590307E-2,7.183381E-2,-6.371148E-2,4.8718367E-2,-4.9525173E-3,-5.981775E-2,-5.8919694E-2,6.561241E-2,5.107076E-2,-5.9258062E-2,7.305751E-2,-5.5872556E-2,-6.248954E-2,-1.0683066E-2,-5.520314E-2,2.9145285E-2,5.8180124E-2,-6.172643E-2,9.799199E-3,-5.786894E-2,8.719106E-2,-5.97048E-2,1.2709904E-1,-3.727599E-2,-6.284216E-2,9.104926E-2,-2.4353005E-2,-6.475975E-2,7.786355E-2,-6.0482234E-2],"categories":[],"categories_nodes":[],"categories_segments":[],"categories_sizes":[],"default_left":[0,0,0,0,0,0,0,0,0,0,0,0,0,0,0,0,0,0,0,0,0,0,0,0,0,0,0,0,0,0,0,0,0,0,0,0,0,0,0,0,0,0,0,0,0,0,0,0,0,0,0,0,0,0,0,0,0,0,0,0,0,0,0,0,0,0,0,0,0,0,0,0,0,0,0,0,0,0,0,0,0,0,0,0,0,0,0,0,0,0,0,0,0,0,0,0,0],"id":17,"left_children":[1,3,5,7,9,11,13,15,-1,17,19,21,23,25,27,-1,-1,29,31,33,35,37,39,41,43,45,47,49,51,53,55,57,59,61,63,65,67,69,71,73,-1,75,77,79,81,83,-1,85,87,89,91,93,95,-1,-1,-1,-1,-1,-1,-1,-1,-1,-1,-1,-1,-1,-1,-1,-1,-1,-1,-1,-1,-1,-1,-1,-1,-1,-1,-1,-1,-1,-1,-1,-1,-1,-1,-1,-1,-1,-1,-1,-1,-1,-1,-1,-1],"loss_changes":[3.9771902E3,1.2246622E3,5.95969E2,7.3691406E0,6.099573E2,8.155762E1,7.8082196E2,1.4382324E0,0E0,3.6060745E2,2.1730338E2,7.347623E1,1.901416E1,4.5454156E2,4.2020752E1,0E0,0E0,7.257713E1,1.5611145E2,1.778363E1,1.2688698E2,3.1984123E1,5.5284332E1,5.391134E1,9.189453E0,1.1321695E2,1.3401788E2,8.268708E1,2.1290955E1,2.1253586E1,8.029255E0,1.2413641E2,1.3082821E1,1.0308105E1,6.7899942E0,7.4216385E1,2.0552666E1,2.3851952E1,2.2437836E1,2.37654E1,0E0,3.2882507E1,2.7893017E1,7.925049E0,3.392987E1,7.9996765E1,0E0,8.155965E1,6.1593655E1,1.6881168E1,2.4415226E1,9.5998535E0,3.8941677E1,0E0,0E0,0E0,0E0,0E0,0E0,0E0,0E0,0E0,0E0,0E0,0E0,0E0,0E0,0E0,0E0,0E0,0E0,0E0,0E0,0E0,0E0,0E0,0E0,0E0,0E0,0E0,0E0,0E0,0E0,0E0,0E0,0E0,0E0,0E0,0E0,0E0,0E0,0E0,0E0,0E0,0E0,0E0,0E0],"parents":[2147483647,0,0,1,1,2,2,3,3,4,4,5,5,6,6,7,7,9,9,10,10,11,11,12,12,13,13,14,14,17,17,18,18,19,19,20,20,21,21,22,22,23,23,24,24,25,25,26,26,27,27,28,28,29,29,30,30,31,31,32,32,33,33,34,34,35,35,36,36,37,37,38,38,39,39,41,41,42,42,43,43,44,44,45,45,47,47,48,48,49,49,50,50,51,51,52,52],"right_children":[2,4,6,8,10,12,14,16,-1,18,20,22,24,26,28,-1,-1,30,32,34,36,38,40,42,44,46,48,50,52,54,56,58,60,62,64,66,68,70,72,74,-1,76,78,80,82,84,-1,86,88,90,92,94,96,-1,-1,-1,-1,-1,-1,-1,-1,-1,-1,-1,-1,-1,-1,-1,-1,-1,-1,-1,-1,-1,-1,-1,-1,-1,-1,-1,-1,-1,-1,-1,-1,-1,-1,-1,-1,-1,-1,-1,-1,-1,-1,-1,-1],"split_conditions":[-4.8050573E-1,-4.3874547E-2,-1.328949E-1,-2.3200405E-1,-1.4703926E0,-2.3487744E-1,1.0739204E0,-3.915089E-2,-3.7951704E-2,-1.6946268E-1,9.23473E-1,-9.5103934E-2,-7.2052246E-1,-6.4637613E-1,-1.2460387E0,1.1513379E-2,6.343294E-2,-1.7490553E-2,4.888182E-2,2.146899E0,-1.6735348E-1,-2.3672454E-1,-1.5559681E-1,-3.91484E-2,4.7150943E-2,-7.414402E-2,8.980034E-3,-1.0213867E0,3.9687598E-1,-1.0848873E0,-2.0933732E-1,-1.4584E-1,1.6364086E0,-1.7289546E-1,-4.882283E-1,8.6233014E-1,-2.2713976E-1,7.2205544E-1,1.3654487E-1,-1.4891227E-1,-6.260569E-2,-8.379552E-1,3.4435934E-1,1.2959214E0,-1.7030902E-2,-1.2095158E-1,-6.3338764E-2,-1.6311444E-1,-1.5462694E-1,2.971881E-1,3.3644482E-1,-2.3899423E-1,1.1378356E-1,-6.78065E-2,3.0292729E-2,6.27966E-2,-4.6734273E-2,6.380454E-2,2.3382805E-4,-6.764059E-2,4.9903415E-2,-3.2182153E-2,-6.503301E-2,-4.6327297E-2,5.9444685E-2,3.0767659E-2,-7.5411394E-2,-6.590307E-2,7.183381E-2,-6.371148E-2,4.8718367E-2,-4.9525173E-3,-5.981775E-2,-5.8919694E-2,6.561241E-2,5.107076E-2,-5.9258062E-2,7.305751E-2,-5.5872556E-2,-6.248954E-2,-1.0683066E-2,-5.520314E-2,2.9145285E-2,5.8180124E-2,-6.172643E-2,9.799199E-3,-5.786894E-2,8.719106E-2,-5.97048E-2,1.2709904E-1,-3.727599E-2,-6.284216E-2,9.104926E-2,-2.4353005E-2,-6.475975E-2,7.786355E-2,-6.0482234E-2],"split_indices":[52,4,1,53,79,42,52,57,0,1,61,75,90,2,110,0,0,71,55,73,0,124,58,57,125,41,41,134,156,91,141,1,94,58,52,106,39,94,148,22,0,103,145,138,69,0,0,65,46,94,156,40,106,0,0,0,0,0,0,0,0,0,0,0,0,0,0,0,0,0,0,0,0,0,0,0,0,0,0,0,0,0,0,0,0,0,0,0,0,0,0,0,0,0,0,0,0],"split_type":[0,0,0,0,0,0,0,0,0,0,0,0,0,0,0,0,0,0,0,0,0,0,0,0,0,0,0,0,0,0,0,0,0,0,0,0,0,0,0,0,0,0,0,0,0,0,0,0,0,0,0,0,0,0,0,0,0,0,0,0,0,0,0,0,0,0,0,0,0,0,0,0,0,0,0,0,0,0,0,0,0,0,0,0,0,0,0,0,0,0,0,0,0,0,0,0,0],"sum_hessian":[6.6763716E3,3.3104668E3,3.3659048E3,1.982606E3,1.3278608E3,2.0250986E3,1.3408062E3,1.9814197E3,1.1862837E0,7.239605E2,6.039004E2,2.1585863E2,1.80924E3,7.768942E2,5.639119E2,1.8279109E0,1.9795918E3,1.18027176E2,6.0593335E2,3.5304742E2,2.5085297E2,1.633884E2,5.2470234E1,1.408993E2,1.6683407E3,4.8314322E2,2.93751E2,4.1634827E1,5.222771E2,1.0285713E2,1.517004E1,5.745068E2,3.1426556E1,3.480018E2,5.0456033E0,1.8694588E2,6.390709E1,2.0300293E1,1.430881E2,3.9670498E1,1.2799737E1,1.2235107E2,1.854824E1,1.482358E3,1.8598274E2,4.6264447E2,2.0498735E1,2.5419781E2,3.955319E1,1.0745268E1,3.088956E1,5.0235632E2,1.9920753E1,9.755493E1,5.3022027E0,1.4013063E1,1.156976E0,4.8323038E2,9.12764E1,2.956734E1,1.8592148E0,2.9057314E1,3.189445E2,1.3795872E0,3.6660163E0,1.6968637E2,1.7259512E1,6.1868835E1,2.0382543E0,5.8203197E0,1.4479973E1,2.2223381E1,1.20864716E2,3.4960513E0,3.6174446E1,6.4267693E0,1.159243E2,1.3488797E1,5.0594435E0,1.4744816E3,7.876468E0,1.737913E2,1.2191434E1,4.4907098E2,1.3573494E1,5.7102962E1,1.9709485E2,3.1151896E1,8.401294E0,9.365747E0,1.3795203E0,2.8943525E1,1.9460354E0,1.67884E1,4.8556793E2,7.0422516E0,1.2878502E1],"tree_param":{"num_deleted":"0","num_feature":"157","num_nodes":"97","size_leaf_vector":"1"}},{"base_weights":[7.0878356E-3,7.627355E-1,-7.62243E-1,1.2259805E0,3.3608606E-4,-1.123653E0,-2.2922559E-1,2.0012775E-1,1.242167E0,3.1510147E-1,-6.2763095E-2,-3.744294E-1,-1.1546403E0,4.063411E-1,-1.0923623E0,6.0922988E-2,-7.907548E-1,-6.448324E-2,1.2465577E0,-1.129861E0,5.873712E-1,9.3960917E-1,-1.2191392E0,-1.0304964E0,-6.265957E-2,-2.7967566E-1,1.2162354E0,-4.8597962E-1,-1.2223208E0,4.7146523E-1,-6.796755E-2,1.2483515E0,-5.0471187E-2,4.1915977E-1,-1.28609E0,-9.2333966E-1,7.212659E-1,-5.800434E-2,1.2104534E0,-7.2318986E-2,2.2337726E-1,-1.0558325E0,1.1083635E0,4.8403677E-1,-1.0836511E0,1.2839546E0,-5.916536E-2,1.2216015E0,-8.5852945E-1,6.125468E-1,-1.239273E0,5.6235243E-2,-4.126553E-2,3.1883344E-2,6.256545E-2,-6.198263E-2,6.9161795E-2,-7.1094684E-2,1.34491995E-2,3.7482485E-2,-5.4574043E-2,4.804409E-2,-2.1902006E-3,7.5998763E-3,6.535561E-2,-5.5532962E-2,6.0535103E-2,-5.625115E-2,-2.5822273E-2,8.034518E-2,-4.2523693E-2,-1.879633E-2,5.596295E-2,-6.0677182E-2,9.079843E-3,6.483574E-2,-4.1090358E-2,1.0440264E-1,-5.534481E-2,-5.484994E-2,5.9164304E-2,1.0579216E-1,-4.4393107E-2,-6.278061E-2,2.0076655E-2],"categories":[],"categories_nodes":[],"categories_segments":[],"categories_sizes":[],"default_left":[0,0,0,0,0,0,0,0,0,0,0,0,0,0,0,0,0,0,0,0,0,0,0,0,0,0,0,0,0,0,0,0,0,0,0,0,0,0,0,0,0,0,0,0,0,0,0,0,0,0,0,0,0,0,0,0,0,0,0,0,0,0,0,0,0,0,0,0,0,0,0,0,0,0,0,0,0,0,0,0,0,0,0,0,0],"id":18,"left_children":[1,3,5,7,9,11,13,15,17,19,-1,21,23,25,27,-1,29,-1,31,33,35,37,39,41,-1,43,45,47,49,51,-1,53,-1,55,57,59,61,-1,63,-1,65,67,69,71,73,75,-1,77,79,81,83,-1,-1,-1,-1,-1,-1,-1,-1,-1,-1,-1,-1,-1,-1,-1,-1,-1,-1,-1,-1,-1,-1,-1,-1,-1,-1,-1,-1,-1,-1,-1,-1,-1,-1],"loss_changes":[3.7907373E3,1.161805E3,6.2217053E2,3.3729492E1,4.9217816E2,4.4264893E1,7.173479E2,3.423915E1,2.3999268E1,3.9239713E2,0E0,8.766189E1,2.1321777E1,4.1890967E2,4.310077E1,0E0,1.3071586E1,0E0,9.39917E0,3.8827225E1,1.7027463E2,1.9069988E1,1.601809E1,4.5799927E1,0E0,2.5146147E2,5.768988E1,6.435912E1,1.4941467E1,6.1139207E0,0E0,2.8327637E0,0E0,2.6101608E1,3.078566E1,2.0144745E1,1.4134659E2,0E0,2.666401E0,0E0,1.1068125E1,2.981427E1,1.1258555E1,1.15291855E2,3.299179E1,1.0111938E1,0E0,3.910419E1,4.136255E1,1.2802547E1,1.2624878E1,0E0,0E0,0E0,0E0,0E0,0E0,0E0,0E0,0E0,0E0,0E0,0E0,0E0,0E0,0E0,0E0,0E0,0E0,0E0,0E0,0E0,0E0,0E0,0E0,0E0,0E0,0E0,0E0,0E0,0E0,0E0,0E0,0E0,0E0],"parents":[2147483647,0,0,1,1,2,2,3,3,4,4,5,5,6,6,7,7,8,8,9,9,11,11,12,12,13,13,14,14,16,16,18,18,19,19,20,20,21,21,22,22,23,23,25,25,26,26,27,27,28,28,29,29,31,31,33,33,34,34,35,35,36,36,38,38,40,40,41,41,42,42,43,43,44,44,45,45,47,47,48,48,49,49,50,50],"right_children":[2,4,6,8,10,12,14,16,18,20,-1,22,24,26,28,-1,30,-1,32,34,36,38,40,42,-1,44,46,48,50,52,-1,54,-1,56,58,60,62,-1,64,-1,66,68,70,72,74,76,-1,78,80,82,84,-1,-1,-1,-1,-1,-1,-1,-1,-1,-1,-1,-1,-1,-1,-1,-1,-1,-1,-1,-1,-1,-1,-1,-1,-1,-1,-1,-1,-1,-1,-1,-1,-1,-1],"split_conditions":[-4.753934E-1,-6.942102E-1,-1.328949E-1,-2.6441646E-1,-2.4024522E-2,-4.4923767E-1,1.0739204E0,-1.7283475E-1,-1.6363646E-1,-1.7964585E-1,-6.2763095E-2,-4.3874547E-2,-1.6643387E-1,9.6457183E-1,-2.3409955E-1,6.0922988E-2,-3.13389E-1,-6.448324E-2,-1.2277127E-1,-5.997548E-1,-4.1402432E-1,-1.6804677E-1,-1.4494957E-1,-3.5168536E-2,-6.265957E-2,-2.3901205E-1,-8.013955E-2,-1.5058198E0,-7.209758E-1,-1.7018273E-1,-6.796755E-2,-1.7172503E-1,-5.0471187E-2,1.2274748E0,-4.104219E-1,-4.1403148E-1,-1.4584E-1,-5.800434E-2,-7.5295985E-2,-7.2318986E-2,-2.2701676E-1,-1.5069604E-1,-8.6534476E-1,4.82977E-2,8.980034E-3,-2.4024522E-2,-5.916536E-2,-1.13841645E-1,7.231706E0,-9.769904E-2,1.1616935E0,5.6235243E-2,-4.126553E-2,3.1883344E-2,6.256545E-2,-6.198263E-2,6.9161795E-2,-7.1094684E-2,1.34491995E-2,3.7482485E-2,-5.4574043E-2,4.804409E-2,-2.1902006E-3,7.5998763E-3,6.535561E-2,-5.5532962E-2,6.0535103E-2,-5.625115E-2,-2.5822273E-2,8.034518E-2,-4.2523693E-2,-1.879633E-2,5.596295E-2,-6.0677182E-2,9.079843E-3,6.483574E-2,-4.1090358E-2,1.0440264E-1,-5.534481E-2,-5.484994E-2,5.9164304E-2,1.0579216E-1,-4.4393107E-2,-6.278061E-2,2.0076655E-2],"split_indices":[52,89,1,76,4,52,52,17,7,1,0,4,58,52,42,0,118,0,1,115,51,1,1,57,0,40,23,12,90,0,0,1,0,123,51,51,1,0,132,0,39,1,120,1,41,4,0,143,3,1,144,0,0,0,0,0,0,0,0,0,0,0,0,0,0,0,0,0,0,0,0,0,0,0,0,0,0,0,0,0,0,0,0,0,0],"split_type":[0,0,0,0,0,0,0,0,0,0,0,0,0,0,0,0,0,0,0,0,0,0,0,0,0,0,0,0,0,0,0,0,0,0,0,0,0,0,0,0,0,0,0,0,0,0,0,0,0,0,0,0,0,0,0,0,0,0,0,0,0,0,0,0,0,0,0,0,0,0,0,0,0,0,0,0,0,0,0,0,0,0,0,0,0],"sum_hessian":[6.5186553E3,3.288577E3,3.2300784E3,2.0452468E3,1.2433301E3,1.9242446E3,1.3058337E3,3.1977291E1,2.0132695E3,9.9471454E2,2.4861557E2,7.694399E1,1.8473007E3,7.523635E2,5.5347015E2,1.5656945E1,1.6320347E1,2.978584E0,2.0102909E3,1.5721405E2,8.375005E2,3.0063923E1,4.688007E1,8.2257025E2,1.0247303E3,4.076881E2,3.4467545E2,9.8519684E1,4.5495047E2,5.121659E0,1.1198688E1,2.00914E3,1.1508739E0,1.4249221E1,1.4296483E2,6.770465E1,7.6979584E2,3.0598075E0,2.7004114E1,4.0497753E1,6.382313E0,8.1344086E2,9.129366E0,2.0928346E2,1.9840465E2,3.3566724E2,9.008193E0,1.7236628E1,8.128306E1,3.8431325E0,4.5110733E2,3.4941847E0,1.6274742E0,1.0727525E1,1.9984125E3,5.1324162E0,9.116804E0,1.3156131E2,1.1403527E1,5.8672833E0,6.1837364E1,5.860059E2,1.8378992E2,2.4749396E0,2.4529175E1,2.6614046E0,3.7209084E0,7.1999664E2,9.344424E1,7.420462E0,1.708904E0,8.908647E1,1.20197E2,1.7996953E2,1.8435122E1,3.3402734E2,1.6398925E0,1.2637414E1,4.5992136E0,7.3196915E1,8.08614E0,1.7148275E0,2.128305E0,4.4689194E2,4.215387E0],"tree_param":{"num_deleted":"0","num_feature":"157","num_nodes":"85","size_leaf_vector":"1"}},{"base_weights":[1.598402E-2,7.314939E-1,-7.469025E-1,1.2108302E0,-4.4140894E-2,-1.0942534E0,-2.3425095E-1,-2.1537276E-1,1.2255017E0,5.520417E-1,-6.6364974E-1,-9.241587E-1,-6.1886143E-2,3.8294706E-1,-1.0465922E0,-1.025404E0,7.9670805E-1,1.2296854E0,-5.603642E-2,-8.536659E-1,8.699085E-1,-8.660979E-1,9.0595067E-1,-1.1906285E0,-6.2982637E-1,9.3744093E-1,-6.214549E-1,-3.252206E-1,-1.1841105E0,4.071199E-2,-6.813999E-2,5.7161916E-2,-4.131077E-2,1.2335557E0,4.804091E-1,-1.1212175E0,1.0112473E0,9.925437E-1,-1.1410667E0,-1.1337304E0,-4.2915207E-1,1.2635975E0,-6.2047727E-2,-1.2200736E0,6.0788995E-1,-1.1728508E0,-3.1786072E-1,1.0745462E0,-1.0248045E0,-8.502509E-1,8.888312E-1,1.1717488E0,-1.1209904E0,-1.2291529E0,-1.0914832E-1,2.4142624E-3,6.175173E-2,5.313688E-2,-5.427866E-2,5.7559658E-2,-6.1646905E-2,6.384329E-2,-4.5412973E-2,6.1418105E-2,9.409778E-3,-6.550167E-2,4.8835468E-2,-6.019628E-2,9.994156E-3,-6.3963115E-2,2.2168353E-3,-4.9217504E-2,6.776873E-2,-6.1927784E-2,5.5910815E-2,8.0867946E-2,-4.679863E-2,-6.140081E-2,1.3233705E-1,2.3813112E-2,-3.1007765E-2,5.696049E-2,-5.934435E-2,-6.470808E-2,4.676908E-2,-2.779197E-3,-5.8597572E-2,8.077588E-2,-5.9005387E-2,1.0633352E-1,-5.78645E-2,5.0065793E-2,-6.2558316E-2,5.1658597E-2,-6.2311E-2,-5.8615256E-2,8.515379E-2],"categories":[],"categories_nodes":[],"categories_segments":[],"categories_sizes":[],"default_left":[0,0,0,0,0,0,0,0,0,0,0,0,0,0,0,0,0,0,0,0,0,0,0,0,0,0,0,0,0,0,0,0,0,0,0,0,0,0,0,0,0,0,0,0,0,0,0,0,0,0,0,0,0,0,0,0,0,0,0,0,0,0,0,0,0,0,0,0,0,0,0,0,0,0,0,0,0,0,0,0,0,0,0,0,0,0,0,0,0,0,0,0,0,0,0,0,0],"id":19,"left_children":[1,3,5,7,9,11,13,15,17,19,21,23,-1,25,27,29,31,33,-1,35,37,39,41,43,45,47,49,51,53,-1,-1,-1,-1,55,57,59,61,63,65,67,69,71,-1,73,75,77,79,81,83,85,87,89,91,93,95,-1,-1,-1,-1,-1,-1,-1,-1,-1,-1,-1,-1,-1,-1,-1,-1,-1,-1,-1,-1,-1,-1,-1,-1,-1,-1,-1,-1,-1,-1,-1,-1,-1,-1,-1,-1,-1,-1,-1,-1,-1,-1],"loss_changes":[3.4810786E3,1.223552E3,5.493544E2,4.2822998E1,4.6495917E2,4.3748535E1,6.26062E2,1.8492846E1,2.1141357E1,2.8741083E2,1.9695093E2,6.5574646E1,0E0,3.9592282E2,5.3088684E1,8.814278E0,6.6515675E0,5.2368164E0,0E0,6.0422195E1,1.3029526E2,6.3517456E1,5.609688E1,2.418634E1,6.8056335E1,1.2425366E2,8.821125E1,1.05767845E2,2.176825E1,0E0,0E0,0E0,0E0,3.4453125E0,1.2067631E1,2.792125E1,9.028906E0,9.3503174E1,1.2217995E1,3.1957947E1,8.438696E1,1.3995583E1,0E0,2.0223389E1,1.3667812E1,3.4227737E1,6.2211983E1,6.3990753E1,1.726527E1,5.625508E1,5.2702885E1,7.1235275E1,1.721096E1,1.8047485E1,3.9161034E1,0E0,0E0,0E0,0E0,0E0,0E0,0E0,0E0,0E0,0E0,0E0,0E0,0E0,0E0,0E0,0E0,0E0,0E0,0E0,0E0,0E0,0E0,0E0,0E0,0E0,0E0,0E0,0E0,0E0,0E0,0E0,0E0,0E0,0E0,0E0,0E0,0E0,0E0,0E0,0E0,0E0,0E0],"parents":[2147483647,0,0,1,1,2,2,3,3,4,4,5,5,6,6,7,7,8,8,9,9,10,10,11,11,13,13,14,14,15,15,16,16,17,17,19,19,20,20,21,21,22,22,23,23,24,24,25,25,26,26,27,27,28,28,33,33,34,34,35,35,36,36,37,37,38,38,39,39,40,40,41,41,43,43,44,44,45,45,46,46,47,47,48,48,49,49,50,50,51,51,52,52,53,53,54,54],"right_children":[2,4,6,8,10,12,14,16,18,20,22,24,-1,26,28,30,32,34,-1,36,38,40,42,44,46,48,50,52,54,-1,-1,-1,-1,56,58,60,62,64,66,68,70,72,-1,74,76,78,80,82,84,86,88,90,92,94,96,-1,-1,-1,-1,-1,-1,-1,-1,-1,-1,-1,-1,-1,-1,-1,-1,-1,-1,-1,-1,-1,-1,-1,-1,-1,-1,-1,-1,-1,-1,-1,-1,-1,-1,-1,-1,-1,-1,-1,-1,-1,-1],"split_conditions":[-4.6033973E-1,-6.942102E-1,-1.2855658E-1,-1.6946268E-1,-1.4703926E0,-1.6643387E-1,1.0739204E0,6.193464E-1,-9.7863644E-2,-1.6946268E-1,-1.5054897E-2,-5.6489393E-2,-6.1886143E-2,-6.4637613E-1,-9.161372E-1,-7.2106504E-1,2.6188222E-1,-1.5063013E-1,-5.603642E-2,-1.7490553E-2,3.943924E-1,9.235163E-1,-1.4891139E-1,-1.4712761E-2,-1.7964585E-1,8.569429E-1,5.578254E-3,3.27317E-1,3.6760497E-1,4.071199E-2,-6.813999E-2,5.7161916E-2,-4.131077E-2,-3.914638E-2,-1.5625614E-1,-8.693424E-1,-3.4769312E-1,-1.5253906E-1,1.2736863E0,-4.1174766E-1,-4.8829025E-1,-9.138345E-2,-6.2047727E-2,9.170834E-1,-1.0300201E0,1.1670854E0,-7.7496403E-1,-1.2095158E-1,2.7146134E0,-2.3488978E-1,-1.5462694E-1,6.4224966E-2,-3.242339E-1,-1.3779038E0,8.2618994E-1,2.4142624E-3,6.175173E-2,5.313688E-2,-5.427866E-2,5.7559658E-2,-6.1646905E-2,6.384329E-2,-4.5412973E-2,6.1418105E-2,9.409778E-3,-6.550167E-2,4.8835468E-2,-6.019628E-2,9.994156E-3,-6.3963115E-2,2.2168353E-3,-4.9217504E-2,6.776873E-2,-6.1927784E-2,5.5910815E-2,8.0867946E-2,-4.679863E-2,-6.140081E-2,1.3233705E-1,2.3813112E-2,-3.1007765E-2,5.696049E-2,-5.934435E-2,-6.470808E-2,4.676908E-2,-2.779197E-3,-5.8597572E-2,8.077588E-2,-5.9005387E-2,1.0633352E-1,-5.78645E-2,5.0065793E-2,-6.2558316E-2,5.1658597E-2,-6.2311E-2,-5.8615256E-2,8.515379E-2],"split_indices":[52,89,1,1,79,58,52,101,47,1,72,15,0,2,134,108,131,17,0,71,55,67,22,72,1,89,47,148,156,0,0,0,0,63,1,115,155,1,130,51,52,2,0,141,125,138,110,0,88,42,46,143,124,128,143,0,0,0,0,0,0,0,0,0,0,0,0,0,0,0,0,0,0,0,0,0,0,0,0,0,0,0,0,0,0,0,0,0,0,0,0,0,0,0,0,0,0],"split_type":[0,0,0,0,0,0,0,0,0,0,0,0,0,0,0,0,0,0,0,0,0,0,0,0,0,0,0,0,0,0,0,0,0,0,0,0,0,0,0,0,0,0,0,0,0,0,0,0,0,0,0,0,0,0,0,0,0,0,0,0,0,0,0,0,0,0,0,0,0,0,0,0,0,0,0,0,0,0,0,0,0,0,0,0,0,0,0,0,0,0,0,0,0,0,0,0,0],"sum_hessian":[6.37532E3,3.2898328E3,3.0854868E3,2.0329341E3,1.2568987E3,1.8385973E3,1.2468896E3,2.0560783E1,2.0123733E3,6.405633E2,6.163354E2,8.4464453E2,9.939527E2,7.088503E2,5.3803937E2,1.1413047E1,9.147737E0,2.0092664E3,